{
    "FIV3-Ds575": {
        "biases": [
            [
                0.04856438934803009
            ],
            [
                -0.02862553298473358,
                0.042694177478551865,
                0.04087169095873833,
                -0.029636604711413383,
                0.04201047867536545,
                0.032572027295827866,
                0.06367886066436768,
                -0.03156626597046852,
                0.09489230066537857,
                0.0512143149971962,
                0.011554508469998837,
                0.007416142616420984,
                0.03807109221816063,
                -0.029715195298194885,
                -0.037132419645786285,
                0.04483930021524429,
                0.04417568817734718,
                0.025704678148031235,
                0.024939926341176033,
                0.016162240877747536,
                -0.023654943332076073,
                0.04536917433142662,
                0.058239180594682693,
                -0.028155723586678505,
                0.08662832528352737,
                -0.012669658288359642,
                0.034540805965662,
                -0.051159169524908066,
                0.027369629591703415,
                0.04177418351173401
            ],
            [
                0.022867152467370033,
                -0.02276928350329399,
                -0.022729625925421715,
                -0.022862207144498825,
                0.0226686242967844,
                -0.02285836823284626,
                -0.02274361066520214,
                0.022862857207655907,
                -0.022873375564813614,
                -0.02277062088251114,
                0.022750433534383774,
                0.022852083668112755,
                -0.022731639444828033,
                0.02286984585225582,
                0.022867199033498764,
                -0.02326425164937973,
                0.022442182525992393,
                0.022765357047319412,
                0.02272610366344452,
                0.02285829931497574,
                0.022766517475247383,
                -0.02279101125895977,
                0.022628966718912125,
                0.022699186578392982,
                -0.022759538143873215,
                0.02274473011493683,
                0.02271158993244171,
                0.022769471630454063,
                0.022842008620500565,
                -0.022672384977340698
            ],
            [
                -0.02282724343240261
            ]
        ],
        "weights": [
            [
                [
                    -1.3393441438674927
                ]
            ],
            [
                [
                    -1.4145375490188599,
                    0.9534519910812378,
                    1.4000084400177002,
                    1.3852375745773315,
                    -0.5727970600128174,
                    1.7479548454284668,
                    1.420941710472107,
                    -1.472578525543213,
                    1.6307950019836426,
                    0.15227094292640686,
                    -1.7799553871154785,
                    -1.9067195653915405,
                    1.1484849452972412,
                    -1.4770632982254028,
                    -0.6587013602256775,
                    0.05362923815846443,
                    -0.39481422305107117,
                    -1.408918857574463,
                    -1.376920461654663,
                    -1.665588617324829,
                    -1.6474717855453491,
                    2.361469030380249,
                    -0.45284026861190796,
                    -1.4671878814697266,
                    1.0046236515045166,
                    -2.0880849361419678,
                    -1.0705664157867432,
                    -1.4653290510177612,
                    -2.250761032104492,
                    0.8306609988212585
                ]
            ],
            [
                [
                    -0.23053857684135437,
                    0.15692013502120972,
                    0.24065007269382477,
                    0.21382302045822144,
                    -0.07268279045820236,
                    0.3030233085155487,
                    0.24790121614933014,
                    -0.2427428960800171,
                    0.2842690348625183,
                    0.00553139066323638,
                    -0.2977066934108734,
                    -0.3195124566555023,
                    0.19344332814216614,
                    -0.242466002702713,
                    -0.09853380173444748,
                    -0.01267558429390192,
                    -0.0391649454832077,
                    -0.23063907027244568,
                    -0.22484634816646576,
                    -0.27688872814178467,
                    -0.27288126945495605,
                    0.4170965850353241,
                    -0.05108216777443886,
                    -0.24008451402187347,
                    0.16961689293384552,
                    -0.35418790578842163,
                    -0.16678927838802338,
                    -0.24814404547214508,
                    -0.37708935141563416,
                    0.13375908136367798
                ],
                [
                    -0.25942689180374146,
                    -0.1150910034775734,
                    -0.46287187933921814,
                    0.15944406390190125,
                    -0.20008055865764618,
                    0.03925279155373573,
                    0.00561793427914381,
                    -0.22403836250305176,
                    -0.4482649862766266,
                    0.057381194084882736,
                    0.40660423040390015,
                    0.40913495421409607,
                    -0.23281171917915344,
                    0.4768321216106415,
                    0.4030488431453705,
                    0.27645066380500793,
                    0.366603285074234,
                    -0.02985399216413498,
                    -0.07435252517461777,
                    -0.34451591968536377,
                    0.14195574820041656,
                    -0.0886460691690445,
                    0.272029846906662,
                    -0.3699045777320862,
                    -0.008893542923033237,
                    -0.3867299556732178,
                    -0.048937782645225525,
                    -0.04563695564866066,
                    0.22333861887454987,
                    0.2875553071498871
                ],
                [
                    -0.21473190188407898,
                    0.13906483352184296,
                    0.3282550275325775,
                    -0.4504600763320923,
                    0.2519721984863281,
                    0.23413120210170746,
                    -0.3412761092185974,
                    0.21089282631874084,
                    -0.14909034967422485,
                    -0.39119911193847656,
                    -0.07622744888067245,
                    0.209429070353508,
                    0.148668572306633,
                    -0.05973965674638748,
                    0.08832961320877075,
                    -0.13713769614696503,
                    -0.36120593547821045,
                    0.20238655805587769,
                    0.003851106157526374,
                    0.35694611072540283,
                    0.3429710865020752,
                    0.22237195074558258,
                    -0.2865431010723114,
                    0.12332477420568466,
                    0.1390993446111679,
                    -0.006878195330500603,
                    -0.2707408666610718,
                    0.36734142899513245,
                    0.1092979684472084,
                    -0.3038577735424042
                ],
                [
                    -0.08738703280687332,
                    -0.3233441412448883,
                    0.03618333116173744,
                    -0.028413794934749603,
                    -0.19769054651260376,
                    0.34976011514663696,
                    0.2987215220928192,
                    -0.004008681047707796,
                    0.11744029819965363,
                    0.21272625029087067,
                    0.09896905720233917,
                    0.07114748656749725,
                    -0.23493261635303497,
                    0.24073849618434906,
                    0.052274346351623535,
                    -0.3616012632846832,
                    -0.12338805943727493,
                    0.027640720829367638,
                    -0.08882753551006317,
                    -0.17540399730205536,
                    -0.08849261701107025,
                    0.17644256353378296,
                    0.007023296784609556,
                    -0.27637821435928345,
                    -0.05200137943029404,
                    -0.2419351488351822,
                    0.1563689410686493,
                    -0.20924228429794312,
                    -0.2623250484466553,
                    -0.08072567731142044
                ],
                [
                    0.27625930309295654,
                    0.21095944941043854,
                    -0.4820612072944641,
                    0.3917214274406433,
                    0.2729197144508362,
                    -0.4375106990337372,
                    0.3286614418029785,
                    0.46533048152923584,
                    -0.17072707414627075,
                    0.39434629678726196,
                    0.011472290381789207,
                    0.04525347054004669,
                    -0.036975160241127014,
                    -0.02880501002073288,
                    -0.22935336828231812,
                    -0.3929993510246277,
                    0.442685604095459,
                    0.45068666338920593,
                    0.32622072100639343,
                    0.2896370589733124,
                    -0.39494824409484863,
                    -0.07610959559679031,
                    0.23930227756500244,
                    -0.06596606969833374,
                    0.2557472586631775,
                    0.1543232798576355,
                    0.1768944263458252,
                    0.2594548165798187,
                    0.07036543637514114,
                    -0.3070318400859833
                ],
                [
                    0.460747092962265,
                    0.325596421957016,
                    0.028154900297522545,
                    -0.42149728536605835,
                    0.3842451572418213,
                    0.02539627067744732,
                    -0.4248168170452118,
                    -0.09852029383182526,
                    0.04361218214035034,
                    -0.1419392079114914,
                    0.11378142982721329,
                    0.05224050581455231,
                    -0.3305325210094452,
                    0.41005247831344604,
                    -0.40943285822868347,
                    0.06763029098510742,
                    -0.18984580039978027,
                    0.02735181525349617,
                    -0.05395060405135155,
                    0.11441963165998459,
                    0.22382020950317383,
                    0.32830584049224854,
                    -0.27011406421661377,
                    0.21150949597358704,
                    0.19040407240390778,
                    0.3862868547439575,
                    0.05830339342355728,
                    -0.003999224863946438,
                    0.1762632429599762,
                    -0.35406288504600525
                ],
                [
                    0.33511751890182495,
                    0.3866470456123352,
                    -0.09459736198186874,
                    -0.21697917580604553,
                    0.17740638554096222,
                    0.18477614223957062,
                    -0.19430339336395264,
                    0.09839427471160889,
                    -0.37081092596054077,
                    -0.3107326924800873,
                    -0.3727196156978607,
                    0.39554402232170105,
                    0.19945605099201202,
                    0.1332203894853592,
                    0.3665756285190582,
                    0.2057950645685196,
                    0.19658558070659637,
                    -0.27250292897224426,
                    0.1854211390018463,
                    0.16654793918132782,
                    -0.09453226625919342,
                    0.03328782320022583,
                    -0.3106481432914734,
                    -0.32391321659088135,
                    0.10643155127763748,
                    0.10092926770448685,
                    0.4697652757167816,
                    -0.20493876934051514,
                    -0.27584177255630493,
                    -0.2702099680900574
                ],
                [
                    -0.15615220367908478,
                    -0.023764364421367645,
                    0.39982980489730835,
                    -0.2908988296985626,
                    -0.04398345202207565,
                    0.214468851685524,
                    0.11009063571691513,
                    0.16673626005649567,
                    -0.01038924790918827,
                    -0.46092578768730164,
                    -0.1084224060177803,
                    0.3000348210334778,
                    0.20339234173297882,
                    -0.23305775225162506,
                    0.3468393087387085,
                    -0.20736843347549438,
                    -0.2594696879386902,
                    -0.13064618408679962,
                    -0.4083723723888397,
                    0.449575275182724,
                    -0.1346200555562973,
                    -0.02556993067264557,
                    -0.38014858961105347,
                    -0.29385116696357727,
                    0.020037245005369186,
                    0.35307830572128296,
                    0.2828340530395508,
                    -0.3784117102622986,
                    0.15573750436306,
                    0.3512513041496277
                ],
                [
                    0.36061355471611023,
                    0.39522841572761536,
                    -0.31142115592956543,
                    -0.008793331682682037,
                    0.1477351039648056,
                    -0.46310216188430786,
                    0.32193318009376526,
                    0.19420047104358673,
                    -0.2726236581802368,
                    -0.42007994651794434,
                    -0.2662317752838135,
                    -0.1817616969347,
                    0.1478922814130783,
                    -0.38351762294769287,
                    -0.23550735414028168,
                    -0.2669803500175476,
                    0.12838870286941528,
                    0.44959405064582825,
                    0.320538192987442,
                    -0.1592157930135727,
                    -0.18383078277111053,
                    -0.030305778607726097,
                    0.25898370146751404,
                    -0.2075243443250656,
                    -0.2928907573223114,
                    0.25978389382362366,
                    -0.3505690097808838,
                    -0.1895783394575119,
                    0.0040869275107979774,
                    0.093874990940094
                ],
                [
                    -0.18762294948101044,
                    0.09688808768987656,
                    -0.24235746264457703,
                    -0.32227739691734314,
                    -0.27269262075424194,
                    0.29042568802833557,
                    -0.19015337526798248,
                    0.243586003780365,
                    -0.061523616313934326,
                    0.2551574409008026,
                    0.2828381061553955,
                    -8.171668741852045e-05,
                    0.22453387081623077,
                    -0.36854055523872375,
                    -0.21354472637176514,
                    0.007101431954652071,
                    -0.28214311599731445,
                    -0.07053995132446289,
                    0.07678396254777908,
                    -0.2313847690820694,
                    0.07387197017669678,
                    -0.21349526941776276,
                    -0.031901150941848755,
                    -0.07925423234701157,
                    -0.43633243441581726,
                    0.40674999356269836,
                    -0.3307666480541229,
                    -0.09257905185222626,
                    0.4071640968322754,
                    0.03818324953317642
                ],
                [
                    0.24655236303806305,
                    -0.328202486038208,
                    -0.40189361572265625,
                    -0.19231024384498596,
                    -0.1455783247947693,
                    -0.40572288632392883,
                    0.173079252243042,
                    0.222674161195755,
                    0.06786948442459106,
                    -0.3800722360610962,
                    -0.2041136473417282,
                    -0.23104658722877502,
                    -0.406432569026947,
                    0.12678571045398712,
                    0.2752264142036438,
                    0.02270156517624855,
                    0.38191336393356323,
                    -0.11602761596441269,
                    -0.04495319724082947,
                    -0.0510810911655426,
                    -0.27918922901153564,
                    -0.4526647925376892,
                    -0.42402032017707825,
                    0.37375015020370483,
                    0.28560706973075867,
                    -0.22114256024360657,
                    -0.3005707561969757,
                    -0.002230903832241893,
                    -0.24301843345165253,
                    0.021545013412833214
                ],
                [
                    -0.3003646433353424,
                    0.13147062063217163,
                    0.21365033090114594,
                    -0.32075798511505127,
                    0.08477241545915604,
                    -0.029125044122338295,
                    -0.03861595690250397,
                    0.41179272532463074,
                    -0.0825193002820015,
                    -0.10172048211097717,
                    0.2008785456418991,
                    0.1762869507074356,
                    -0.03886646032333374,
                    0.25473731756210327,
                    0.03969511389732361,
                    0.3474794924259186,
                    -0.3601929247379303,
                    -0.18871474266052246,
                    0.37180498242378235,
                    -0.14455008506774902,
                    0.18544822931289673,
                    -0.4019612669944763,
                    -0.40717455744743347,
                    -0.14192558825016022,
                    0.3060341477394104,
                    0.04560420289635658,
                    -0.18462878465652466,
                    -0.26621517539024353,
                    -0.37810808420181274,
                    0.026356948539614677
                ],
                [
                    -0.23742952942848206,
                    -0.33151665329933167,
                    -0.11657977104187012,
                    -0.4671086370944977,
                    0.07046715915203094,
                    -0.028662389144301414,
                    -0.47439122200012207,
                    0.4765978753566742,
                    0.15039993822574615,
                    -0.256359338760376,
                    0.08388058841228485,
                    0.22630470991134644,
                    -0.34261322021484375,
                    0.477803111076355,
                    0.35556933283805847,
                    0.390892893075943,
                    -0.1928064376115799,
                    0.09094519168138504,
                    0.23712222278118134,
                    0.40471693873405457,
                    -0.2954834997653961,
                    -0.287037193775177,
                    0.20932504534721375,
                    -0.07342249155044556,
                    0.24920175969600677,
                    -0.35856691002845764,
                    -0.29896217584609985,
                    -0.3927280604839325,
                    0.3505585193634033,
                    0.3316989243030548
                ],
                [
                    -0.3888035714626312,
                    0.38833504915237427,
                    -0.33593425154685974,
                    -0.3509504795074463,
                    -0.3295047879219055,
                    0.09913469851016998,
                    -0.20013085007667542,
                    0.25789621472358704,
                    0.2861548066139221,
                    -0.10379120707511902,
                    -0.28069525957107544,
                    0.1966448873281479,
                    -0.15894128382205963,
                    -0.013940728269517422,
                    0.463898628950119,
                    -0.1514221429824829,
                    0.41050052642822266,
                    -0.13171075284481049,
                    -0.26960670948028564,
                    -0.32308974862098694,
                    -0.38486409187316895,
                    0.2557957172393799,
                    0.2592925429344177,
                    -0.1941380500793457,
                    -0.1202659159898758,
                    0.0875265896320343,
                    0.31308597326278687,
                    0.3364817798137665,
                    -0.39569398760795593,
                    -0.1971885710954666
                ],
                [
                    0.01647092029452324,
                    -0.3979668915271759,
                    0.202458918094635,
                    -0.1353496015071869,
                    -0.06193859502673149,
                    0.04210681840777397,
                    -0.02172442339360714,
                    -0.038339752703905106,
                    -0.12010973691940308,
                    -0.28197067975997925,
                    -0.142775297164917,
                    -0.25336548686027527,
                    0.09587031602859497,
                    0.12162546068429947,
                    0.18440665304660797,
                    0.3080665171146393,
                    -0.13470111787319183,
                    0.019100213423371315,
                    0.03900543227791786,
                    0.0060089388862252235,
                    -0.07062460482120514,
                    0.2068842202425003,
                    0.014272048138082027,
                    0.005663176067173481,
                    0.16432282328605652,
                    0.06257257610559464,
                    -0.09058346599340439,
                    0.24154187738895416,
                    0.08592084050178528,
                    -0.1201108917593956
                ],
                [
                    -0.0035638653207570314,
                    0.40214937925338745,
                    -0.3607291579246521,
                    -0.2054007351398468,
                    0.23056170344352722,
                    -0.35643404722213745,
                    0.2772388160228729,
                    0.23318152129650116,
                    0.3195778429508209,
                    -0.17639532685279846,
                    0.15601152181625366,
                    0.21421405673027039,
                    -0.037795934826135635,
                    -0.13656996190547943,
                    0.12244914472103119,
                    0.051277607679367065,
                    -0.03924082592129707,
                    0.37783581018447876,
                    0.3327881991863251,
                    0.023351842537522316,
                    -0.3328360617160797,
                    -0.4353986978530884,
                    0.10097397118806839,
                    0.13804586231708527,
                    0.23098082840442657,
                    -0.08298294246196747,
                    0.22973549365997314,
                    -0.1296282857656479,
                    0.4256573021411896,
                    -0.2997438609600067
                ],
                [
                    0.03692258521914482,
                    -0.25831612944602966,
                    -0.4837736189365387,
                    -0.15709419548511505,
                    0.3443019390106201,
                    0.012695152312517166,
                    -0.2399568259716034,
                    0.33213892579078674,
                    0.3260418176651001,
                    0.21213267743587494,
                    -0.0893501341342926,
                    0.1304050087928772,
                    -0.057411108165979385,
                    0.27770695090293884,
                    0.06307665258646011,
                    0.15431584417819977,
                    -0.28105446696281433,
                    -0.2819064259529114,
                    0.4256296157836914,
                    0.4387204945087433,
                    0.37227576971054077,
                    0.3542579412460327,
                    -0.1923382431268692,
                    0.19161197543144226,
                    0.011021737940609455,
                    0.18763796985149384,
                    -0.18062320351600647,
                    0.14381790161132812,
                    -0.06522981077432632,
                    -0.42061591148376465
                ],
                [
                    -0.27733945846557617,
                    0.09961008280515671,
                    0.34600719809532166,
                    -0.46909546852111816,
                    -0.38721394538879395,
                    -0.3498755693435669,
                    -0.1425544023513794,
                    0.1986786127090454,
                    0.06927766650915146,
                    -0.3505815863609314,
                    0.27144625782966614,
                    0.35668209195137024,
                    -0.03369937464594841,
                    -0.25739654898643494,
                    0.30055004358291626,
                    -0.45394793152809143,
                    0.11727170646190643,
                    0.3612787425518036,
                    0.4237830936908722,
                    0.2963724136352539,
                    0.403787225484848,
                    0.34849783778190613,
                    -0.19089920818805695,
                    0.36233386397361755,
                    -0.15663546323776245,
                    -0.32313674688339233,
                    0.4294379651546478,
                    0.15643693506717682,
                    -0.2564532458782196,
                    -0.4602924883365631
                ],
                [
                    -0.16352686285972595,
                    -0.2706211805343628,
                    -0.1798277050256729,
                    -0.055857956409454346,
                    -0.254686176776886,
                    0.24683158099651337,
                    0.20558801293373108,
                    0.3249507248401642,
                    0.35012561082839966,
                    -0.27576228976249695,
                    0.32638052105903625,
                    0.26279667019844055,
                    0.16774968802928925,
                    0.09635729342699051,
                    -0.35353049635887146,
                    -0.34757816791534424,
                    -0.3237782418727875,
                    0.32513871788978577,
                    0.28542977571487427,
                    0.4199860095977783,
                    0.0678909569978714,
                    -0.09669153392314911,
                    0.3274272382259369,
                    0.3543841540813446,
                    0.12554112076759338,
                    -0.007376556750386953,
                    0.22743497788906097,
                    -0.05147754028439522,
                    -0.4087943136692047,
                    -0.45173507928848267
                ],
                [
                    -0.026093333959579468,
                    -0.07349827885627747,
                    -0.21798786520957947,
                    -0.03419042006134987,
                    -0.313438355922699,
                    -0.23529601097106934,
                    -0.13025525212287903,
                    0.3630423843860626,
                    0.34034064412117004,
                    0.2982177734375,
                    -0.30058708786964417,
                    0.20721209049224854,
                    -0.11895854026079178,
                    0.25285837054252625,
                    0.0014622556045651436,
                    0.31800395250320435,
                    0.311583548784256,
                    -0.298428475856781,
                    0.3077816367149353,
                    -0.22006948292255402,
                    0.45515960454940796,
                    0.04163765162229538,
                    0.11608307808637619,
                    0.4296107292175293,
                    -0.023074422031641006,
                    0.3944254517555237,
                    0.21068386733531952,
                    -0.2804934084415436,
                    -0.14292579889297485,
                    -0.45822635293006897
                ],
                [
                    0.14022712409496307,
                    0.4217609763145447,
                    0.3834933638572693,
                    -0.23293249309062958,
                    -0.23424479365348816,
                    0.20183655619621277,
                    0.20974475145339966,
                    -0.42414718866348267,
                    0.3079621493816376,
                    0.406684547662735,
                    0.41956743597984314,
                    -0.19570209085941315,
                    0.10478078573942184,
                    -0.06855203211307526,
                    0.12520073354244232,
                    -0.29618850350379944,
                    0.4542398750782013,
                    -0.2079319804906845,
                    0.16581827402114868,
                    0.1138593778014183,
                    0.1955711394548416,
                    0.2675323784351349,
                    0.018971461802721024,
                    -0.018055962398648262,
                    0.30117809772491455,
                    -0.17645707726478577,
                    -0.06196564435958862,
                    -0.34810754656791687,
                    0.4082445800304413,
                    -0.37916281819343567
                ],
                [
                    -0.3610943555831909,
                    0.306679904460907,
                    0.12069112062454224,
                    -0.3176513910293579,
                    -0.08269897103309631,
                    -0.3855580687522888,
                    0.212974414229393,
                    -0.23237256705760956,
                    0.35794904828071594,
                    -0.168013334274292,
                    0.18691667914390564,
                    0.13755397498607635,
                    -0.34098172187805176,
                    0.23544466495513916,
                    0.30023133754730225,
                    0.10744442045688629,
                    0.04373668506741524,
                    0.32619887590408325,
                    0.19167467951774597,
                    -0.2641938626766205,
                    0.20272059738636017,
                    0.17593717575073242,
                    0.014171771705150604,
                    0.31465524435043335,
                    0.2699476480484009,
                    -0.21366575360298157,
                    0.27065277099609375,
                    -0.1759958267211914,
                    0.1604507714509964,
                    -0.1885712593793869
                ],
                [
                    -0.23712968826293945,
                    0.30902808904647827,
                    -0.030340932309627533,
                    -0.4672996699810028,
                    0.21926963329315186,
                    -0.4812157452106476,
                    -0.14456279575824738,
                    0.32074883580207825,
                    -0.13465581834316254,
                    -0.4762134253978729,
                    0.16109789907932281,
                    -0.06771843880414963,
                    -0.08769872039556503,
                    0.35733047127723694,
                    -0.3861675560474396,
                    -0.4177243113517761,
                    -0.302546888589859,
                    -0.16438573598861694,
                    -0.4022224247455597,
                    -0.03140684589743614,
                    -0.37435829639434814,
                    -0.16198259592056274,
                    -0.02722751908004284,
                    -0.043236274272203445,
                    0.2734246850013733,
                    0.4137905240058899,
                    -0.31721600890159607,
                    -0.343866229057312,
                    0.09384047985076904,
                    -0.18827266991138458
                ],
                [
                    -0.0921587198972702,
                    0.2664741575717926,
                    0.02285188063979149,
                    0.13792221248149872,
                    -0.4025021493434906,
                    0.17718516290187836,
                    -0.26789170503616333,
                    -0.22478987276554108,
                    0.06858538091182709,
                    0.20849426090717316,
                    0.009060833603143692,
                    -0.03982285410165787,
                    -0.05573179945349693,
                    -0.11540433019399643,
                    -0.31689557433128357,
                    0.35201963782310486,
                    0.252579927444458,
                    -0.4183683693408966,
                    -0.23291438817977905,
                    -0.07001779228448868,
                    -0.11383732408285141,
                    0.4184843599796295,
                    -0.2920702397823334,
                    0.4665791988372803,
                    0.10573460161685944,
                    0.24503935873508453,
                    -0.394181489944458,
                    0.3769210875034332,
                    -0.39950841665267944,
                    0.41645342111587524
                ],
                [
                    -0.05423378571867943,
                    0.38526007533073425,
                    -0.464324027299881,
                    -0.46059948205947876,
                    0.13110029697418213,
                    0.3810059726238251,
                    -0.19033154845237732,
                    -0.0033278733026236296,
                    -0.3211325705051422,
                    -0.4077913165092468,
                    0.12184948474168777,
                    0.02519574575126171,
                    -0.2801782190799713,
                    -0.08993733674287796,
                    0.07104659825563431,
                    0.2151208072900772,
                    0.33743879199028015,
                    -0.2915615737438202,
                    -0.2650192081928253,
                    0.032739005982875824,
                    0.08626175671815872,
                    0.06927035748958588,
                    0.17014890909194946,
                    -0.3642279803752899,
                    -0.1799377202987671,
                    0.32811155915260315,
                    -0.2735055387020111,
                    -0.2421940267086029,
                    0.22899229824543,
                    0.3397519588470459
                ],
                [
                    0.0490250289440155,
                    -0.16732154786586761,
                    0.17181697487831116,
                    0.22800515592098236,
                    0.06310385465621948,
                    -0.0037905059289187193,
                    0.15672487020492554,
                    -0.21129301190376282,
                    -0.3304595649242401,
                    -0.05025603249669075,
                    -0.0038120190147310495,
                    0.3556686043739319,
                    0.03401799127459526,
                    -0.2718128263950348,
                    -0.05299884453415871,
                    -0.14625303447246552,
                    -0.17534077167510986,
                    -0.10292806476354599,
                    -0.19443267583847046,
                    0.20541657507419586,
                    -0.21551693975925446,
                    0.36913228034973145,
                    -0.4136614203453064,
                    0.3980990946292877,
                    0.4163225293159485,
                    0.18208517134189606,
                    0.20277845859527588,
                    -0.33846792578697205,
                    0.13268890976905823,
                    -0.0734333023428917
                ],
                [
                    0.16108699142932892,
                    0.110989511013031,
                    0.002746246289461851,
                    -0.2974391281604767,
                    -0.332155704498291,
                    -0.4169829785823822,
                    -0.44989079236984253,
                    -0.0535084530711174,
                    -0.3798147737979889,
                    0.2377770096063614,
                    0.17467284202575684,
                    -0.21127429604530334,
                    0.1318156123161316,
                    -0.3330630660057068,
                    0.06879688799381256,
                    0.15215817093849182,
                    -0.2536770701408386,
                    0.08515482395887375,
                    0.0505649633705616,
                    -0.24597404897212982,
                    0.15887241065502167,
                    0.015315990895032883,
                    -0.08771075308322906,
                    0.1029297485947609,
                    0.07385897636413574,
                    0.34818145632743835,
                    0.12579303979873657,
                    0.4016759395599365,
                    0.03282250463962555,
                    0.08209271728992462
                ],
                [
                    0.0011838466161862016,
                    0.048719678074121475,
                    0.3971896767616272,
                    0.06455573439598083,
                    -0.10747916996479034,
                    -0.02622595988214016,
                    -0.23791196942329407,
                    -0.3110499680042267,
                    -0.2546120285987854,
                    -0.018393365666270256,
                    0.21870318055152893,
                    -0.06689257174730301,
                    0.39131438732147217,
                    0.08385030925273895,
                    0.0413949117064476,
                    0.12822628021240234,
                    0.32475775480270386,
                    -0.38127008080482483,
                    0.1419948786497116,
                    0.45942223072052,
                    -0.12627029418945312,
                    0.025710249319672585,
                    -0.005216960795223713,
                    -0.3214021921157837,
                    0.027228238061070442,
                    -0.10019886493682861,
                    0.4474923014640808,
                    -0.14544548094272614,
                    0.24025152623653412,
                    -0.057592473924160004
                ],
                [
                    0.34347304701805115,
                    0.030843766406178474,
                    -0.014254352077841759,
                    -0.28206866979599,
                    -0.33832311630249023,
                    -0.2437022626399994,
                    0.3423875570297241,
                    0.33458036184310913,
                    -0.31284767389297485,
                    0.07594597339630127,
                    -0.33266904950141907,
                    0.01729007624089718,
                    0.20263704657554626,
                    0.3656405210494995,
                    0.04693533852696419,
                    -0.32891806960105896,
                    -0.325704962015152,
                    -0.042111776769161224,
                    -0.37171047925949097,
                    0.14326898753643036,
                    -0.2212323099374771,
                    0.27920037508010864,
                    0.3185882270336151,
                    -0.3887341320514679,
                    -0.268068790435791,
                    -0.15236644446849823,
                    -0.40303459763526917,
                    0.00023514428175985813,
                    0.3611907958984375,
                    0.28272557258605957
                ],
                [
                    0.3844377398490906,
                    0.3326347768306732,
                    -0.005681697744876146,
                    0.3436267673969269,
                    -0.15970361232757568,
                    -0.26019322872161865,
                    -0.4537907838821411,
                    0.05888058990240097,
                    0.10176748037338257,
                    -0.0472792312502861,
                    0.11413989961147308,
                    0.4816877543926239,
                    0.14417962729930878,
                    -0.3414706289768219,
                    0.48334312438964844,
                    0.2577196955680847,
                    0.032678768038749695,
                    0.059988316148519516,
                    -0.23215587437152863,
                    -0.33790358901023865,
                    0.16156215965747833,
                    -0.4342992603778839,
                    -0.2733590602874756,
                    0.20749469101428986,
                    -0.35287168622016907,
                    -0.1929565817117691,
                    -0.2521843910217285,
                    0.11333250999450684,
                    0.39068442583084106,
                    0.22986330091953278
                ]
            ],
            [
                [
                    -0.24525614082813263
                ],
                [
                    0.15049389004707336
                ],
                [
                    0.267084002494812
                ],
                [
                    0.2655675411224365
                ],
                [
                    -0.08021230250597
                ],
                [
                    0.34773826599121094
                ],
                [
                    0.271391898393631
                ],
                [
                    -0.2922283113002777
                ],
                [
                    0.3139141798019409
                ],
                [
                    0.06120201572775841
                ],
                [
                    -0.3201077878475189
                ],
                [
                    -0.36564651131629944
                ],
                [
                    0.20005851984024048
                ],
                [
                    -0.2779037654399872
                ],
                [
                    -0.14702357351779938
                ],
                [
                    0.03141287714242935
                ],
                [
                    -0.05701334774494171
                ],
                [
                    -0.2421252727508545
                ],
                [
                    -0.24633410573005676
                ],
                [
                    -0.32446375489234924
                ],
                [
                    -0.282300740480423
                ],
                [
                    0.4255697429180145
                ],
                [
                    -0.06241707503795624
                ],
                [
                    -0.26266518235206604
                ],
                [
                    0.17783793807029724
                ],
                [
                    -0.4124189019203186
                ],
                [
                    -0.18340587615966797
                ],
                [
                    -0.26229366660118103
                ],
                [
                    -0.4044104516506195
                ],
                [
                    0.18916313350200653
                ]
            ]
        ],
        "activation-functions": [
            "linear",
            "softmax",
            "linear",
            "linear"
        ]
    },
    "FIV3-Ds595": {
        "biases": [
            [
                0.05464644730091095
            ],
            [
                -0.025479506701231003,
                0.048808202147483826,
                0.04382816329598427,
                -0.027068309485912323,
                0.04310552030801773,
                0.03235244005918503,
                0.07684308290481567,
                -0.032720036804676056,
                0.1282690167427063,
                0.06107597053050995,
                0.003978810738772154,
                -0.0009902804158627987,
                0.03964788839221001,
                -0.028484685346484184,
                -0.03668857365846634,
                0.04817439988255501,
                0.04629627987742424,
                0.020726611837744713,
                0.01925536058843136,
                0.009614161215722561,
                -0.020623598247766495,
                0.05471528694033623,
                0.06238497793674469,
                -0.025358309969305992,
                0.1189078837633133,
                -0.01088188961148262,
                0.032127495855093,
                -0.06141650676727295,
                0.018320539966225624,
                0.04550923407077789
            ],
            [
                0.020115552470088005,
                -0.02013303153216839,
                -0.02001396380364895,
                -0.019987773150205612,
                0.020138274878263474,
                -0.020017173141241074,
                -0.020024515688419342,
                0.020001094788312912,
                -0.020063677802681923,
                -0.019453974440693855,
                0.020022248849272728,
                0.02000999078154564,
                -0.020055700093507767,
                0.020033475011587143,
                0.0199113879352808,
                -0.019768381491303444,
                0.019933432340621948,
                0.02007693611085415,
                0.020008906722068787,
                0.020009273663163185,
                0.020063739269971848,
                -0.02006549946963787,
                0.020170096307992935,
                0.019913500174880028,
                -0.020105376839637756,
                0.019933652132749557,
                0.020031800493597984,
                0.020073765888810158,
                0.02007278800010681,
                -0.019818395376205444
            ],
            [
                -0.02005060948431492
            ]
        ],
        "weights": [
            [
                [
                    -1.3375749588012695
                ]
            ],
            [
                [
                    -1.4255951642990112,
                    0.9398386478424072,
                    1.3852542638778687,
                    1.3928568363189697,
                    -0.5635699033737183,
                    1.7348551750183105,
                    1.3964890241622925,
                    -1.4771848917007446,
                    1.5911301374435425,
                    0.15031969547271729,
                    -1.7733691930770874,
                    -1.9017677307128906,
                    1.13705575466156,
                    -1.4838969707489014,
                    -0.6533913612365723,
                    0.05306156352162361,
                    -0.38784611225128174,
                    -1.3959498405456543,
                    -1.3621612787246704,
                    -1.6569856405258179,
                    -1.6553680896759033,
                    2.3424665927886963,
                    -0.4339459240436554,
                    -1.4770114421844482,
                    0.9696583151817322,
                    -2.089651584625244,
                    -1.0546470880508423,
                    -1.4387404918670654,
                    -2.251162528991699,
                    0.8207498788833618
                ]
            ],
            [
                [
                    -0.23406754434108734,
                    0.16015353798866272,
                    0.24412718415260315,
                    0.2176143229007721,
                    -0.07577160745859146,
                    0.30672594904899597,
                    0.25139591097831726,
                    -0.2464933544397354,
                    0.28789886832237244,
                    0.010645466856658459,
                    -0.30122119188308716,
                    -0.3232315182685852,
                    0.19685111939907074,
                    -0.24615098536014557,
                    -0.10252518951892853,
                    -0.007784400600939989,
                    -0.042407456785440445,
                    -0.23404037952423096,
                    -0.22835282981395721,
                    -0.28061288595199585,
                    -0.27632802724838257,
                    0.4205768406391144,
                    -0.053952861577272415,
                    -0.24378515779972076,
                    0.1729215532541275,
                    -0.3579309582710266,
                    -0.1702326238155365,
                    -0.251560777425766,
                    -0.3806483745574951,
                    0.13769091665744781
                ],
                [
                    -0.25964635610580444,
                    -0.11528076976537704,
                    -0.4633442759513855,
                    0.1593369096517563,
                    -0.1993965357542038,
                    0.03919726610183716,
                    0.00508439727127552,
                    -0.22396250069141388,
                    -0.4482027292251587,
                    0.05769369751214981,
                    0.4070807695388794,
                    0.4092549681663513,
                    -0.23326793313026428,
                    0.47676530480384827,
                    0.40298014879226685,
                    0.27966850996017456,
                    0.3679112493991852,
                    -0.02945740707218647,
                    -0.0738043487071991,
                    -0.3444676995277405,
                    0.1423533707857132,
                    -0.08899221569299698,
                    0.2724815607070923,
                    -0.36954864859580994,
                    -0.009231503121554852,
                    -0.38650405406951904,
                    -0.04839547351002693,
                    -0.04525184631347656,
                    0.22335021197795868,
                    0.2871412932872772
                ],
                [
                    -0.21608659625053406,
                    0.1399594247341156,
                    0.3292281925678253,
                    -0.4492776691913605,
                    0.25138047337532043,
                    0.2353253811597824,
                    -0.34047237038612366,
                    0.20968708395957947,
                    -0.14782610535621643,
                    -0.3894954323768616,
                    -0.07705143094062805,
                    0.20830072462558746,
                    0.14941638708114624,
                    -0.061013638973236084,
                    0.0870554968714714,
                    -0.13311755657196045,
                    -0.3610546886920929,
                    0.20148172974586487,
                    0.0031056785956025124,
                    0.3557455241680145,
                    0.3421361744403839,
                    0.2232748121023178,
                    -0.2875647246837616,
                    0.12267017364501953,
                    0.140045627951622,
                    -0.00795653648674488,
                    -0.2714172303676605,
                    0.36643096804618835,
                    0.10802719742059708,
                    -0.3029422461986542
                ],
                [
                    -0.08864724636077881,
                    -0.32252535223960876,
                    0.03705576807260513,
                    -0.027323827147483826,
                    -0.19820456206798553,
                    0.3508633077144623,
                    0.299441933631897,
                    -0.005121058784425259,
                    0.11861101537942886,
                    0.2143358737230301,
                    0.09822580218315125,
                    0.07010704278945923,
                    -0.2342585325241089,
                    0.2395583838224411,
                    0.05108596011996269,
                    -0.35773101449012756,
                    -0.12321574985980988,
                    0.026823759078979492,
                    -0.08949652314186096,
                    -0.17651398479938507,
                    -0.08924935758113861,
                    0.17726418375968933,
                    0.006119209807366133,
                    -0.27698832750320435,
                    -0.05114550143480301,
                    -0.24292613565921783,
                    0.15575970709323883,
                    -0.21006670594215393,
                    -0.2634948492050171,
                    -0.0798867791891098
                ],
                [
                    0.2762407064437866,
                    0.21064701676368713,
                    -0.4829917252063751,
                    0.39137718081474304,
                    0.27390962839126587,
                    -0.437791109085083,
                    0.3278486132621765,
                    0.4656532108783722,
                    -0.1708814650774002,
                    0.3945366144180298,
                    0.012184878811240196,
                    0.04557855427265167,
                    -0.03758886083960533,
                    -0.028660036623477936,
                    -0.22931067645549774,
                    -0.3898036479949951,
                    0.4438670873641968,
                    0.45138922333717346,
                    0.3269801735877991,
                    0.2898988127708435,
                    -0.39435839653015137,
                    -0.07667351514101028,
                    0.2404535561800003,
                    -0.06582186371088028,
                    0.2550813555717468,
                    0.15476219356060028,
                    0.17755764722824097,
                    0.26012638211250305,
                    0.07071119546890259,
                    -0.30756643414497375
                ],
                [
                    0.45837706327438354,
                    0.32746827602386475,
                    0.03041508048772812,
                    -0.4191679060459137,
                    0.38250839710235596,
                    0.027704546228051186,
                    -0.42281824350357056,
                    -0.10086679458618164,
                    0.04594793915748596,
                    -0.13902032375335693,
                    0.1117946058511734,
                    0.04999788478016853,
                    -0.32870447635650635,
                    0.40770164132118225,
                    -0.41177958250045776,
                    0.07234563678503036,
                    -0.1907486766576767,
                    0.02528364397585392,
                    -0.05585441738367081,
                    0.11210505664348602,
                    0.22188112139701843,
                    0.3303283154964447,
                    -0.27244970202445984,
                    0.20993727445602417,
                    0.19249950349330902,
                    0.3840446472167969,
                    0.056530967354774475,
                    -0.006070134695619345,
                    0.17385025322437286,
                    -0.3519607186317444
                ],
                [
                    0.33370763063430786,
                    0.38759636878967285,
                    -0.09354837983846664,
                    -0.21573513746261597,
                    0.17674744129180908,
                    0.1860310584306717,
                    -0.1934325098991394,
                    0.09712632745504379,
                    -0.3694879710674286,
                    -0.30897194147109985,
                    -0.3736075162887573,
                    0.3943547308444977,
                    0.20026318728923798,
                    0.13188830018043518,
                    0.36524584889411926,
                    0.20983976125717163,
                    0.19668219983577728,
                    -0.27347487211227417,
                    0.1846117079257965,
                    0.1652863472700119,
                    -0.09542842954397202,
                    0.03425322473049164,
                    -0.3117547631263733,
                    -0.3246117830276489,
                    0.10744506120681763,
                    0.09978776425123215,
                    0.46902889013290405,
                    -0.205916166305542,
                    -0.2771776616573334,
                    -0.26923373341560364
                ],
                [
                    -0.1599782258272171,
                    -0.020214881747961044,
                    0.4036964774131775,
                    -0.2867564260959625,
                    -0.047446418553590775,
                    0.21851088106632233,
                    0.11396526545286179,
                    0.16263830661773682,
                    -0.0064361668191850185,
                    -0.4554389417171478,
                    -0.11230813711881638,
                    0.29596951603889465,
                    0.20715634524822235,
                    -0.23706872761249542,
                    0.34251314401626587,
                    -0.20244140923023224,
                    -0.26310521364212036,
                    -0.13441117107868195,
                    -0.4122522473335266,
                    0.4455128610134125,
                    -0.13842138648033142,
                    -0.021735042333602905,
                    -0.3833901286125183,
                    -0.2978734076023102,
                    0.023695508018136024,
                    0.34898480772972107,
                    0.2790317237377167,
                    -0.3821888566017151,
                    0.15184223651885986,
                    0.35555121302604675
                ],
                [
                    0.3585660457611084,
                    0.39679473638534546,
                    -0.3095577657222748,
                    -0.006827244069427252,
                    0.14634832739830017,
                    -0.46114587783813477,
                    0.3235591650009155,
                    0.19221393764019012,
                    -0.2706255614757538,
                    -0.4175602197647095,
                    -0.26785510778427124,
                    -0.18365195393562317,
                    0.14938287436962128,
                    -0.3855260908603668,
                    -0.2375100702047348,
                    -0.26252251863479614,
                    0.12781213223934174,
                    0.4478868246078491,
                    0.3189946413040161,
                    -0.16117775440216064,
                    -0.18542523682117462,
                    -0.028633957728743553,
                    0.25704529881477356,
                    -0.20880098640918732,
                    -0.29115229845046997,
                    0.25790897011756897,
                    -0.3519989252090454,
                    -0.191288560628891,
                    0.002032209187746048,
                    0.09560028463602066
                ],
                [
                    -0.18680423498153687,
                    0.09572948515415192,
                    -0.2442106008529663,
                    -0.323577344417572,
                    -0.27082303166389465,
                    0.2892186939716339,
                    -0.19192729890346527,
                    0.24484825134277344,
                    -0.06256476789712906,
                    0.2541729211807251,
                    0.2845100462436676,
                    0.0011862983228638768,
                    0.22298790514469147,
                    -0.3674977421760559,
                    -0.21252112090587616,
                    0.009615168906748295,
                    -0.2798600196838379,
                    -0.0689309686422348,
                    0.0785164162516594,
                    -0.23018856346607208,
                    0.0753936618566513,
                    -0.21498695015907288,
                    -0.029998302459716797,
                    -0.07806892693042755,
                    -0.4378705322742462,
                    0.40817171335220337,
                    -0.3291311264038086,
                    -0.09099124372005463,
                    0.40837910771369934,
                    0.03656858950853348
                ],
                [
                    0.24147340655326843,
                    -0.32324227690696716,
                    -0.3963613212108612,
                    -0.18673041462898254,
                    -0.15071646869182587,
                    -0.400272011756897,
                    0.17856702208518982,
                    0.21714843809604645,
                    0.07317450642585754,
                    -0.3734744191169739,
                    -0.20956863462924957,
                    -0.23654012382030487,
                    -0.4011385440826416,
                    0.12142165750265121,
                    0.2695930600166321,
                    0.027495302259922028,
                    0.3766016960144043,
                    -0.12136082351207733,
                    -0.050419606268405914,
                    -0.056539956480264664,
                    -0.2845093011856079,
                    -0.4473143219947815,
                    -0.42897164821624756,
                    0.36842697858810425,
                    0.290814608335495,
                    -0.22665821015834808,
                    -0.30589911341667175,
                    -0.007557734847068787,
                    -0.24833670258522034,
                    0.02727413922548294
                ],
                [
                    -0.30551883578300476,
                    0.13658137619495392,
                    0.21930170059204102,
                    -0.3151269555091858,
                    0.07944640517234802,
                    -0.023608164861798286,
                    -0.03301357477903366,
                    0.40620747208595276,
                    -0.07714046537876129,
                    -0.09541700035333633,
                    0.1953163743019104,
                    0.1707286387681961,
                    -0.033452101051807404,
                    0.24930845201015472,
                    0.03406144678592682,
                    0.35202348232269287,
                    -0.36564570665359497,
                    -0.19417646527290344,
                    0.36622926592826843,
                    -0.15006983280181885,
                    0.18001139163970947,
                    -0.3964992165565491,
                    -0.41234835982322693,
                    -0.1472918540239334,
                    0.3113870322704315,
                    0.04004621505737305,
                    -0.19006837904453278,
                    -0.27166619896888733,
                    -0.3835141956806183,
                    0.032081976532936096
                ],
                [
                    -0.23812679946422577,
                    -0.33125191926956177,
                    -0.11644532531499863,
                    -0.46667230129241943,
                    0.07061784714460373,
                    -0.02819119021296501,
                    -0.4743631184101105,
                    0.47613272070884705,
                    0.1509692519903183,
                    -0.2554524838924408,
                    0.08381077647209167,
                    0.22589898109436035,
                    -0.3425641357898712,
                    0.47722843289375305,
                    0.35499098896980286,
                    0.3944605588912964,
                    -0.19198063015937805,
                    0.09079553931951523,
                    0.23712703585624695,
                    0.40423834323883057,
                    -0.29560258984565735,
                    -0.28685835003852844,
                    0.20916089415550232,
                    -0.07349146157503128,
                    0.24940237402915955,
                    -0.358890563249588,
                    -0.2989312708377838,
                    -0.39288637042045593,
                    0.35002994537353516,
                    0.33184534311294556
                ],
                [
                    -0.392666757106781,
                    0.391918420791626,
                    -0.332023561000824,
                    -0.34676456451416016,
                    -0.33300381898880005,
                    0.10321860760450363,
                    -0.19621528685092926,
                    0.2537558674812317,
                    0.2901477515697479,
                    -0.09824375063180923,
                    -0.2846219837665558,
                    0.19253873825073242,
                    -0.15513843297958374,
                    -0.017991967499256134,
                    0.4595296382904053,
                    -0.14645420014858246,
                    0.4068266749382019,
                    -0.1355152279138565,
                    -0.2735273540019989,
                    -0.3271945118904114,
                    -0.38870474696159363,
                    0.2596701979637146,
                    0.2560139000415802,
                    -0.19819898903369904,
                    -0.11656960099935532,
                    0.08338937908411026,
                    0.3092442452907562,
                    0.3326646089553833,
                    -0.39963048696517944,
                    -0.19284196197986603
                ],
                [
                    0.0161893330514431,
                    -0.3979981243610382,
                    0.20189644396305084,
                    -0.13537465035915375,
                    -0.06129998713731766,
                    0.04213329032063484,
                    -0.022182727232575417,
                    -0.03833119198679924,
                    -0.11997664719820023,
                    -0.281440794467926,
                    -0.14240753650665283,
                    -0.2533525228500366,
                    0.09558288753032684,
                    0.1214807853102684,
                    0.18415214121341705,
                    0.31127890944480896,
                    -0.13390693068504333,
                    0.019465116783976555,
                    0.03941485285758972,
                    0.005965286400169134,
                    -0.07036145776510239,
                    0.20664577186107635,
                    0.01506365742534399,
                    0.005514440592378378,
                    0.16398358345031738,
                    0.0626826360821724,
                    -0.09025652706623077,
                    0.2418796271085739,
                    0.08596189320087433,
                    -0.12029553949832916
                ],
                [
                    -0.0027706013061106205,
                    0.40101826190948486,
                    -0.36256980895996094,
                    -0.20667265355587006,
                    0.23241443932056427,
                    -0.35761380195617676,
                    0.2754887044429779,
                    0.234416663646698,
                    0.3185633420944214,
                    -0.17733635008335114,
                    0.15765896439552307,
                    0.21545356512069702,
                    -0.03931372985243797,
                    -0.1355540007352829,
                    0.12343738973140717,
                    0.0538385808467865,
                    -0.03700188919901848,
                    0.3794245719909668,
                    0.3344937562942505,
                    0.0245201475918293,
                    -0.33134153485298157,
                    -0.43686443567276,
                    0.10288235545158386,
                    0.13917939364910126,
                    0.22946059703826904,
                    -0.08159142732620239,
                    0.23133938014507294,
                    -0.12806227803230286,
                    0.42685365676879883,
                    -0.3013215959072113
                ],
                [
                    0.03728945180773735,
                    -0.25901222229003906,
                    -0.4851560592651367,
                    -0.15788204967975616,
                    0.34571191668510437,
                    0.01198597066104412,
                    -0.24122215807437897,
                    0.3328993618488312,
                    0.3254772424697876,
                    0.21178781986236572,
                    -0.08819040656089783,
                    0.13116566836833954,
                    -0.0584527812898159,
                    0.27826711535453796,
                    0.06356234103441238,
                    0.15723341703414917,
                    -0.2793942391872406,
                    -0.2807745337486267,
                    0.4268404543399811,
                    0.43941450119018555,
                    0.37329572439193726,
                    0.35326293110847473,
                    -0.19078943133354187,
                    0.19219543039798737,
                    0.009939359501004219,
                    0.1885298788547516,
                    -0.17951864004135132,
                    0.14492201805114746,
                    -0.06446976214647293,
                    -0.42163947224617004
                ],
                [
                    -0.2807084918022156,
                    0.10271576792001724,
                    0.34930914640426636,
                    -0.46549439430236816,
                    -0.39016857743263245,
                    -0.34635254740715027,
                    -0.13922932744026184,
                    0.19511328637599945,
                    0.0727374330163002,
                    -0.3458016812801361,
                    0.2680993378162384,
                    0.35314396023750305,
                    -0.030445212498307228,
                    -0.26090705394744873,
                    0.2967609465122223,
                    -0.4493219256401062,
                    0.11417616903781891,
                    0.3580361008644104,
                    0.42044562101364136,
                    0.29282912611961365,
                    0.4004986882209778,
                    0.35181647539138794,
                    -0.19364075362682343,
                    0.3588004410266876,
                    -0.15348030626773834,
                    -0.32668688893318176,
                    0.42615365982055664,
                    0.1531810462474823,
                    -0.25983956456184387,
                    -0.45657607913017273
                ],
                [
                    -0.16671955585479736,
                    -0.2676983177661896,
                    -0.1767534613609314,
                    -0.0524648055434227,
                    -0.257426381111145,
                    0.2501537799835205,
                    0.2086915224790573,
                    0.3215908408164978,
                    0.35339319705963135,
                    -0.2712157964706421,
                    0.32325056195259094,
                    0.2594635486602783,
                    0.17079702019691467,
                    0.09304063767194748,
                    -0.3571194112300873,
                    -0.3430042862892151,
                    -0.3266479969024658,
                    0.32210832834243774,
                    0.28231143951416016,
                    0.4166432023048401,
                    0.06481006741523743,
                    -0.09358000010251999,
                    0.3248997926712036,
                    0.3510412871837616,
                    0.12849071621894836,
                    -0.010717538185417652,
                    0.2243608683347702,
                    -0.05452355369925499,
                    -0.41198235750198364,
                    -0.44823959469795227
                ],
                [
                    -0.030786680057644844,
                    -0.06898031383752823,
                    -0.2129644751548767,
                    -0.029042325913906097,
                    -0.3180542290210724,
                    -0.23027263581752777,
                    -0.12525883316993713,
                    0.3579472303390503,
                    0.34523284435272217,
                    0.30455052852630615,
                    -0.30556395649909973,
                    0.20215004682540894,
                    -0.11413370817899704,
                    0.24790586531162262,
                    -0.0037864786572754383,
                    0.32284483313560486,
                    0.30677860975265503,
                    -0.30327895283699036,
                    0.3027973771095276,
                    -0.22510604560375214,
                    0.4503050148487091,
                    0.04652345925569534,
                    0.11167412251234055,
                    0.42467454075813293,
                    -0.018347885459661484,
                    0.3893343508243561,
                    0.20582136511802673,
                    -0.28534218668937683,
                    -0.1478073000907898,
                    -0.4529120922088623
                ],
                [
                    0.13541731238365173,
                    0.42633509635925293,
                    0.38861069083213806,
                    -0.22764216363430023,
                    -0.2388913333415985,
                    0.2069903463125229,
                    0.2148326337337494,
                    -0.4293794631958008,
                    0.3129768669605255,
                    0.41340744495391846,
                    0.41449323296546936,
                    -0.2008948177099228,
                    0.10968567430973053,
                    -0.0736345574259758,
                    0.11977556347846985,
                    -0.29094362258911133,
                    0.4493837058544159,
                    -0.212863489985466,
                    0.1607399433851242,
                    0.1086883619427681,
                    0.19062933325767517,
                    0.27251097559928894,
                    0.01454718317836523,
                    -0.02311968244612217,
                    0.30597350001335144,
                    -0.18169312179088593,
                    -0.06691621243953705,
                    -0.35304155945777893,
                    0.40324851870536804,
                    -0.3736698627471924
                ],
                [
                    -0.3654900789260864,
                    0.310516893863678,
                    0.12551653385162354,
                    -0.3130449652671814,
                    -0.08673424273729324,
                    -0.3810337483882904,
                    0.21735753118991852,
                    -0.23698589205741882,
                    0.3624185621738434,
                    -0.16274133324623108,
                    0.18260802328586578,
                    0.1330963522195816,
                    -0.33699488639831543,
                    0.2309555858373642,
                    0.2957623600959778,
                    0.11350180953741074,
                    0.04070895537734032,
                    0.321806937456131,
                    0.18745775520801544,
                    -0.2687224745750427,
                    0.19857269525527954,
                    0.18019235134124756,
                    0.009201099164783955,
                    0.3112463653087616,
                    0.27434152364730835,
                    -0.21822689473628998,
                    0.26668718457221985,
                    -0.18038393557071686,
                    0.15576432645320892,
                    -0.18410970270633698
                ],
                [
                    -0.23688581585884094,
                    0.30845335125923157,
                    -0.03158324211835861,
                    -0.46794670820236206,
                    0.22054897248744965,
                    -0.48178917169570923,
                    -0.1456860899925232,
                    0.3213702440261841,
                    -0.1350896656513214,
                    -0.4763810634613037,
                    0.16211651265621185,
                    -0.06709674000740051,
                    -0.08860484510660172,
                    0.35775691270828247,
                    -0.385824978351593,
                    -0.41470664739608765,
                    -0.30103856325149536,
                    -0.16338899731636047,
                    -0.40115463733673096,
                    -0.030850917100906372,
                    -0.3734738528728485,
                    -0.1628408432006836,
                    -0.02579743228852749,
                    -0.04279647022485733,
                    0.2724725008010864,
                    0.4145388901233673,
                    -0.31625205278396606,
                    -0.34289732575416565,
                    0.09446976333856583,
                    -0.1891392171382904
                ],
                [
                    -0.09598612785339355,
                    0.2700154781341553,
                    0.02671053074300289,
                    0.1420651376247406,
                    -0.4059491753578186,
                    0.1812271624803543,
                    -0.26402565836906433,
                    -0.22888731956481934,
                    0.07253842055797577,
                    0.21400533616542816,
                    0.005182269960641861,
                    -0.0438864603638649,
                    -0.051975883543491364,
                    -0.11941573768854141,
                    -0.32122546434402466,
                    0.3570067584514618,
                    0.2489602416753769,
                    -0.42212557792663574,
                    -0.2367868572473526,
                    -0.07408065348863602,
                    -0.11763159185647964,
                    0.4223131239414215,
                    -0.295297235250473,
                    0.4625574052333832,
                    0.10938430577516556,
                    0.24094532430171967,
                    -0.39797648787498474,
                    0.37315234541893005,
                    -0.40340152382850647,
                    0.42075595259666443
                ],
                [
                    -0.054456960409879684,
                    0.3850792348384857,
                    -0.46476784348487854,
                    -0.4607009291648865,
                    0.13175618648529053,
                    0.38095757365226746,
                    -0.19084666669368744,
                    -0.0032598143443465233,
                    -0.32106417417526245,
                    -0.4074994623661041,
                    0.12231101840734482,
                    0.025310298427939415,
                    -0.2806226313114166,
                    -0.09000905603170395,
                    0.07098343223333359,
                    0.2182752937078476,
                    0.3387424349784851,
                    -0.2911839783191681,
                    -0.2644856870174408,
                    0.032781802117824554,
                    0.08664730191230774,
                    0.0689370408654213,
                    0.17054976522922516,
                    -0.36385536193847656,
                    -0.18025387823581696,
                    0.3283308148384094,
                    -0.2729721963405609,
                    -0.2418266385793686,
                    0.2289896309375763,
                    0.339336633682251
                ],
                [
                    0.044647518545389175,
                    -0.1629074066877365,
                    0.1764872521162033,
                    0.23268666863441467,
                    0.05860600993037224,
                    0.0008322586072608829,
                    0.16138625144958496,
                    -0.2159537374973297,
                    -0.3259219527244568,
                    -0.0454520545899868,
                    -0.008450720459222794,
                    0.35102522373199463,
                    0.038570139557123184,
                    -0.27638131380081177,
                    -0.0576670840382576,
                    -0.1422334462404251,
                    -0.17987656593322754,
                    -0.10751020163297653,
                    -0.19907709956169128,
                    0.2007937878370285,
                    -0.22008977830410004,
                    0.37372371554374695,
                    -0.4180411100387573,
                    0.39357948303222656,
                    0.42084643244743347,
                    0.17749619483947754,
                    0.19821660220623016,
                    -0.3430486023426056,
                    0.1281535029411316,
                    -0.06878271698951721
                ],
                [
                    0.15936428308486938,
                    0.11239184439182281,
                    0.003921482712030411,
                    -0.29578638076782227,
                    -0.3331140875816345,
                    -0.4153389632701874,
                    -0.4486354887485504,
                    -0.05515220761299133,
                    -0.37813976407051086,
                    0.24034057557582855,
                    0.17335139214992523,
                    -0.21290168166160583,
                    0.1331372857093811,
                    -0.3347702920436859,
                    0.06688252836465836,
                    0.1562899947166443,
                    -0.2546384930610657,
                    0.08388683199882507,
                    0.04927197843790054,
                    -0.24764029681682587,
                    0.15751737356185913,
                    0.01670021191239357,
                    -0.08846774697303772,
                    0.10118874162435532,
                    0.07509881258010864,
                    0.3465965688228607,
                    0.1244712844491005,
                    0.4003814160823822,
                    0.03128869831562042,
                    0.08372560888528824
                ],
                [
                    -0.002396360971033573,
                    0.05205778405070305,
                    0.40079572796821594,
                    0.06842069327831268,
                    -0.11072620004415512,
                    -0.022450556978583336,
                    -0.23429380357265472,
                    -0.3148745894432068,
                    -0.2509162724018097,
                    -0.013325692154467106,
                    0.21507364511489868,
                    -0.07068900763988495,
                    0.394838809967041,
                    0.08010158687829971,
                    0.03736061975359917,
                    0.13280124962329865,
                    0.3213536739349365,
                    -0.38479000329971313,
                    0.1383693665266037,
                    0.4556294083595276,
                    -0.12982702255249023,
                    0.02929729036986828,
                    -0.008248786441981792,
                    -0.3251689374446869,
                    0.030651915818452835,
                    -0.10401199012994766,
                    0.44393616914749146,
                    -0.1489754319190979,
                    0.23661476373672485,
                    -0.05359821766614914
                ],
                [
                    0.34060603380203247,
                    0.033850912004709244,
                    -0.011445708572864532,
                    -0.27914950251579285,
                    -0.3411930799484253,
                    -0.24076516926288605,
                    0.34527868032455444,
                    0.33165329694747925,
                    -0.30992329120635986,
                    0.07845237106084824,
                    -0.3355708122253418,
                    0.01435797568410635,
                    0.2055455595254898,
                    0.36271172761917114,
                    0.044012486934661865,
                    -0.3258105218410492,
                    -0.3285984694957733,
                    -0.04500189796090126,
                    -0.37461093068122864,
                    0.14033019542694092,
                    -0.2241562008857727,
                    0.28212970495224,
                    0.31583139300346375,
                    -0.3917315602302551,
                    -0.26516860723495483,
                    -0.15519535541534424,
                    -0.40595364570617676,
                    -0.002670415211468935,
                    0.3583311438560486,
                    0.28551626205444336
                ],
                [
                    0.3844517767429352,
                    0.3322230875492096,
                    -0.00645779212936759,
                    0.34325340390205383,
                    -0.15875309705734253,
                    -0.2605057656764984,
                    -0.45460113883018494,
                    0.05922045186161995,
                    0.10158386081457138,
                    -0.04725091904401779,
                    0.11488515883684158,
                    0.4820654094219208,
                    0.14347676932811737,
                    -0.3412889838218689,
                    0.4835200309753418,
                    0.2607864737510681,
                    0.034221433103084564,
                    0.06065535545349121,
                    -0.23134073615074158,
                    -0.33759891986846924,
                    0.162213996052742,
                    -0.4349031448364258,
                    -0.272592693567276,
                    0.20805104076862335,
                    -0.35347720980644226,
                    -0.19246266782283783,
                    -0.2513917088508606,
                    0.11398681998252869,
                    0.3909624218940735,
                    0.22917665541172028
                ]
            ],
            [
                [
                    -0.2419864535331726
                ],
                [
                    0.1519702821969986
                ],
                [
                    0.2764080762863159
                ],
                [
                    0.2627328932285309
                ],
                [
                    -0.08387856185436249
                ],
                [
                    0.34484389424324036
                ],
                [
                    0.275474488735199
                ],
                [
                    -0.290175199508667
                ],
                [
                    0.3110036253929138
                ],
                [
                    0.056742113083601
                ],
                [
                    -0.32312801480293274
                ],
                [
                    -0.361959844827652
                ],
                [
                    0.20097675919532776
                ],
                [
                    -0.27418053150177
                ],
                [
                    -0.14186373353004456
                ],
                [
                    0.02735051140189171
                ],
                [
                    -0.056708503514528275
                ],
                [
                    -0.24660012125968933
                ],
                [
                    -0.24857039749622345
                ],
                [
                    -0.3209647834300995
                ],
                [
                    -0.28366735577583313
                ],
                [
                    0.42848291993141174
                ],
                [
                    -0.06778664141893387
                ],
                [
                    -0.25080204010009766
                ],
                [
                    0.18211150169372559
                ],
                [
                    -0.40981847047805786
                ],
                [
                    -0.18324394524097443
                ],
                [
                    -0.2664966881275177
                ],
                [
                    -0.4067873954772949
                ],
                [
                    0.18551987409591675
                ]
            ]
        ],
        "activation-functions": [
            "linear",
            "softmax",
            "linear",
            "linear"
        ]
    },
    "FIV3-FIV3": {
        "biases": [
            [
                0.3403128683567047,
                1.5211248397827148
            ],
            [
                -0.7150325775146484,
                -0.18797016143798828,
                -0.06145817041397095,
                -0.12940223515033722,
                -0.5273399949073792,
                -0.0019146610284224153,
                0.44086727499961853,
                -0.6934802532196045,
                0.5897942781448364,
                -0.4749176502227783,
                -0.35743364691734314,
                -0.3373037576675415,
                -0.11114347726106644,
                -0.6129748821258545,
                -0.8475826978683472,
                -0.768876314163208,
                -0.6139211058616638,
                -0.4310738146305084,
                -0.48083174228668213,
                -0.45847639441490173,
                -0.328975111246109,
                0.09097737073898315,
                -0.4028628468513489,
                -0.7256413698196411,
                1.1577812433242798,
                -0.3330613374710083,
                -0.3666686415672302,
                -0.5032840371131897,
                -0.3159732520580292,
                -0.35261914134025574,
                -0.32298097014427185,
                -0.7886775135993958,
                -0.6231592893600464,
                -0.16894906759262085,
                -0.5926976799964905,
                -0.6196258664131165,
                -0.6944615840911865,
                -0.25070735812187195,
                -0.4272846281528473,
                -0.49592044949531555,
                0.5959779620170593,
                0.7223808765411377,
                -0.5339789390563965,
                0.37001046538352966,
                0.75155109167099,
                -0.0973997563123703,
                -0.002242842921987176,
                -0.5446085333824158,
                -0.7326196432113647,
                -0.3782011568546295,
                -0.5521106719970703,
                -0.4549672305583954,
                -0.08297017216682434,
                -0.3734230399131775,
                1.1948316097259521,
                -0.506946325302124,
                -0.5230769515037537,
                -0.47974565625190735,
                -0.15559853613376617,
                0.5226298570632935,
                -0.3601074516773224,
                -0.2177000492811203,
                0.27879753708839417,
                -0.24538654088974,
                -0.1563812643289566,
                -0.020120466127991676,
                -0.2705465257167816,
                -0.4685475826263428,
                -0.7863898873329163,
                -0.35097458958625793,
                -0.6708223819732666,
                -0.048524707555770874,
                -0.19576407968997955,
                -0.4326968789100647,
                0.8683820962905884,
                -0.45425114035606384,
                -0.33533310890197754,
                -0.32115837931632996,
                -0.8969971537590027,
                -0.1204838678240776,
                -0.024775974452495575,
                -0.10093225538730621,
                -0.6571210026741028,
                -0.5174859762191772,
                1.5019543170928955,
                -0.4695006310939789,
                -0.31181710958480835,
                0.004224580712616444,
                0.8117142915725708,
                -0.646420419216156,
                -0.37504932284355164,
                -0.24496644735336304,
                -0.44715654850006104,
                -0.531863808631897,
                -0.33221808075904846,
                0.8445188999176025,
                0.03448875993490219,
                -0.9149628281593323,
                1.22385835647583,
                -0.1127779483795166,
                -0.4512946903705597,
                -0.82967609167099,
                -0.45815110206604004,
                -0.21356961131095886,
                -0.5804662704467773,
                -0.41352197527885437,
                -0.6520127058029175,
                -0.6368957757949829,
                -0.4297995865345001,
                -0.3443509638309479,
                -0.3761495053768158,
                0.969903826713562,
                -0.9222515821456909,
                -0.36188316345214844,
                -0.6712111234664917,
                -0.5678920745849609,
                1.4990226030349731,
                -0.7485533952713013,
                -0.2813580334186554,
                -0.587390124797821,
                -0.13785907626152039,
                -0.08626779168844223,
                -0.6156539916992188,
                0.44724464416503906,
                -0.1495402604341507,
                -0.5527781248092651,
                0.6872236728668213,
                0.46662357449531555,
                -0.5496929287910461,
                0.2040635347366333,
                -0.6035944819450378,
                -0.5505197644233704,
                -0.8493051528930664,
                -0.7453106045722961,
                -0.6394661664962769,
                -0.6820253729820251,
                0.21156062185764313,
                0.5872800350189209,
                0.05999702587723732,
                -0.10832507908344269,
                -0.39474350214004517,
                -0.9251221418380737,
                -0.22885429859161377,
                -0.6056060791015625,
                0.44511327147483826,
                -0.5242835879325867,
                -0.37207117676734924,
                0.36769676208496094,
                -0.7657719850540161,
                -0.46336570382118225,
                0.5382527709007263,
                0.2114417552947998,
                -0.46712177991867065,
                -0.37106046080589294,
                0.6268571019172668,
                -0.47406646609306335,
                -0.6604226231575012,
                -0.7798943519592285,
                1.608743667602539,
                -0.5394740104675293,
                -0.6609091758728027,
                -0.8592004776000977,
                -0.511468231678009,
                0.14619183540344238,
                -0.5368949770927429,
                -0.599906325340271,
                -0.4848295748233795,
                0.309819757938385,
                -0.9071475267410278,
                -0.5913792252540588,
                -0.14963550865650177,
                0.021327979862689972,
                -0.5641695857048035,
                -0.26127418875694275,
                0.7823294401168823,
                0.1620461493730545,
                -0.8552200198173523,
                -0.6078511476516724,
                0.061653733253479004,
                -0.33915776014328003,
                0.17300519347190857,
                0.17396001517772675,
                -0.41785573959350586,
                -0.48253077268600464,
                0.9663931727409363,
                -0.16019776463508606,
                -0.44718900322914124,
                0.23552119731903076,
                -0.6773011684417725,
                -0.7240390777587891,
                -0.38792210817337036,
                0.8654123544692993,
                -0.1502455621957779,
                -0.3486512005329132,
                0.5054326057434082,
                0.44605258107185364,
                -0.2163698524236679,
                -0.3157283663749695,
                0.026709819212555885,
                -0.21392594277858734,
                -0.8297658562660217,
                -0.10527551174163818,
                -0.34777283668518066,
                -0.6195050477981567,
                -0.4428178071975708,
                -0.7311416864395142,
                0.2098311483860016,
                -0.6185986399650574,
                -0.429415225982666,
                -0.3194982409477234,
                -0.3788599371910095,
                -0.8438343405723572,
                0.8140881061553955,
                -0.28506821393966675,
                -0.42416903376579285,
                -0.1053745448589325,
                -0.3807568848133087,
                -0.3642805814743042,
                -0.8156666159629822,
                -0.28106603026390076,
                -0.8254903554916382,
                0.09584159404039383,
                -0.1523248553276062,
                -0.3484291434288025,
                0.17643912136554718,
                -0.3304150104522705,
                -0.5903081893920898,
                -0.8032658696174622,
                0.03027866594493389,
                0.2537831664085388,
                -0.6879963874816895,
                0.16869094967842102,
                -0.3365767002105713,
                -0.7111634016036987,
                -0.6136731505393982,
                -0.0075048599392175674,
                -0.23992927372455597,
                -0.586390495300293,
                -0.30867889523506165,
                0.03829760104417801,
                0.025557134300470352,
                0.15951797366142273,
                -0.40942877531051636,
                -0.7194768786430359,
                -0.3337096869945526,
                -0.6332998871803284,
                0.3989125192165375,
                1.5797008275985718,
                -0.5060490369796753,
                -0.32737237215042114,
                -0.7241562008857727,
                -0.7463808655738831,
                -0.010263131000101566,
                -0.5358169078826904,
                -0.3050743043422699,
                -0.34576746821403503,
                -0.3443063795566559,
                0.36759525537490845,
                0.330628365278244,
                -0.5550426840782166,
                -0.576421856880188,
                -0.6984355449676514,
                0.5360615253448486,
                -0.7447450757026672,
                -0.6516106724739075,
                -0.1570936143398285,
                -0.6422899961471558,
                -0.4837634861469269,
                -0.4637022614479065,
                -0.25268104672431946,
                -0.5027862191200256,
                -0.4111446440219879,
                -0.42055532336235046,
                -0.5033981800079346,
                -0.3092362582683563,
                0.017286380752921104,
                -0.5110055208206177,
                0.3970397114753723,
                -0.16102127730846405,
                0.04141316935420036,
                -0.10444855690002441,
                -0.8743911981582642,
                -0.08255501836538315,
                -0.6363328099250793,
                -0.5104904770851135,
                0.9372605085372925,
                -0.7134404182434082,
