{
    "SA-FIV3": {
        "biases": [
            [
                0.2455664724111557,
                -0.1667611300945282
            ],
            [
                -0.05151548609137535,
                -0.08851756155490875,
                -0.10936582833528519,
                0.23481106758117676,
                0.0034375099930912256,
                0.06794094294309616,
                0.13636501133441925,
                0.04306328296661377,
                0.005130002740770578,
                0.20578445494174957,
                -0.05949903279542923,
                0.030224652960896492,
                -0.12482360750436783,
                -0.062210582196712494,
                -0.0927804633975029,
                -0.09961621463298798,
                -0.022354722023010254,
                -0.013124052435159683,
                0.009644118137657642,
                -0.009113571606576443,
                -0.19539642333984375,
                0.018997112289071083,
                -0.22940915822982788,
                -0.08004983514547348,
                -0.14817211031913757,
                -0.2646388113498688,
                -0.13748124241828918,
                -0.18140284717082977,
                0.02726874127984047,
                0.0564882718026638,
                -0.12575332820415497,
                -0.17151160538196564,
                -0.08767770975828171,
                -0.020993659272789955,
                0.14239110052585602,
                -0.08917208760976791,
                -0.2845124900341034,
                -0.35572534799575806,
                -0.11766071617603302,
                -0.2108370065689087,
                -0.13104698061943054,
                0.04036848992109299,
                -0.25968655943870544,
                0.2841344475746155,
                0.027252255007624626,
                -0.06638520210981369,
                0.03820991516113281,
                -0.07655108720064163,
                -0.17249518632888794,
                -0.07905694097280502,
                0.08492966741323471,
                -0.01730266399681568,
                -0.37999221682548523,
                -0.08636534214019775,
                0.1468190848827362,
                -0.052148692309856415,
                -0.11910310387611389,
                -0.06059403717517853,
                0.18597452342510223,
                -0.13018372654914856
            ],
            [
                0.1115342229604721,
                0.10639074444770813,
                -0.11964596062898636,
                0.0029053869657218456,
                0.06104932352900505,
                -0.030179699882864952,
                -0.07143520563840866,
                0.04343298450112343,
                -0.08609575778245926,
                0.03443785756826401,
                0.012864038348197937,
                0.04815751314163208,
                0.014763816259801388,
                -0.005499063525348902,
                -0.11941181868314743,
                -0.014611784368753433,
                -0.02512018382549286,
                -0.022728409618139267,
                0.010246170684695244,
                0.019797544926404953,
                0.0279246736317873,
                0.06658565253019333,
                -0.013635530136525631,
                -0.107510507106781,
                0.015616020187735558,
                0.09497719258069992,
                -0.08040754497051239,
                -0.09031584113836288,
                -0.10359854996204376,
                0.011610105633735657,
                0.007023976184427738,
                0.10977394133806229,
                -0.02814987674355507,
                -0.0016098690684884787,
                -0.0015739023219794035,
                0.08411498367786407,
                -0.008438524790108204,
                -0.11941544711589813,
                -0.11522189527750015,
                0.08794006705284119
            ],
            [
                0.009646803140640259
            ]
        ],
        "weights": [
            [
                [
                    -1.7794421911239624,
                    2.012519359588623
                ],
                [
                    0.9798256754875183,
                    0.8826289176940918
                ]
            ],
            [
                [
                    -1.010343074798584,
                    0.8376032710075378,
                    1.415328025817871,
                    1.4149693250656128,
                    -0.47949403524398804,
                    1.3280417919158936,
                    1.5067567825317383,
                    -1.179524302482605,
                    1.0482065677642822,
                    1.041750431060791,
                    -1.6965521574020386,
                    -1.4767532348632812,
                    0.8817327618598938,
                    -0.8484821915626526,
                    -0.34577417373657227,
                    0.09868963062763214,
                    -0.23290520906448364,
                    -0.9442182183265686,
                    -0.9623303413391113,
                    -1.5191256999969482,
                    -1.354783535003662,
                    1.7562415599822998,
                    -0.006162373349070549,
                    -1.0147615671157837,
                    0.770696759223938,
                    -2.548981189727783,
                    -0.7206190228462219,
                    -1.6471607685089111,
                    -1.3764616250991821,
                    1.3661017417907715,
                    -0.624336302280426,
                    -0.6079927682876587,
                    -2.0596706867218018,
                    0.8726575970649719,
                    -0.9110519886016846,
                    0.5552444458007812,
                    -0.5517513155937195,
                    -0.9198744893074036,
                    -1.4599813222885132,
                    0.2924150228500366,
                    1.1537998914718628,
                    2.188491106033325,
                    -0.8752845525741577,
                    1.9558207988739014,
                    1.4481825828552246,
                    1.4492669105529785,
                    1.1001014709472656,
                    -0.21969854831695557,
                    -0.5330945253372192,
                    -1.4768712520599365,
                    0.3102791905403137,
                    -0.16125935316085815,
                    0.777790367603302,
                    -1.551082968711853,
                    0.002661609323695302,
                    -1.6880669593811035,
                    -0.41665118932724,
                    -0.28202274441719055,
                    1.0493240356445312,
                    0.950712263584137
                ],
                [
                    -1.0938849449157715,
                    0.5269476175308228,
                    0.9454264640808105,
                    -1.5649700164794922,
                    0.8156915903091431,
                    0.9710806012153625,
                    -1.6106573343276978,
                    1.2021567821502686,
                    -0.8186044692993164,
                    -1.3884735107421875,
                    -0.4677848219871521,
                    0.6586709022521973,
                    0.5843815207481384,
                    -0.49588340520858765,
                    0.016946708783507347,
                    -0.5248885750770569,
                    -1.8976068496704102,
                    1.0229768753051758,
                    0.519465446472168,
                    1.746536374092102,
                    1.4463300704956055,
                    0.8199352025985718,
                    -1.9853802919387817,
                    0.4792931079864502,
                    0.47081679105758667,
                    -0.013529600575566292,
                    -1.5944573879241943,
                    1.9134505987167358,
                    0.1767272800207138,
                    -1.5753294229507446,
                    -0.5416363477706909,
                    -1.4591223001480103,
                    0.4418579638004303,
                    -0.03614667057991028,
                    -0.6500078439712524,
                    1.57893967628479,
                    1.2203660011291504,
                    -0.3311299979686737,
                    0.66765296459198,
                    0.7428774833679199,
                    0.021341033279895782,
                    0.3735973834991455,
                    -0.9347573518753052,
                    0.9012712836265564,
                    0.14038458466529846,
                    -1.588957667350769,
                    -0.7505465745925903,
                    0.020070483908057213,
                    -0.2893272340297699,
                    -0.9002746343612671,
                    -0.5979600548744202,
                    0.6841667294502258,
                    -0.3717954456806183,
                    -1.1625219583511353,
                    -0.15600502490997314,
                    -1.0589005947113037,
                    0.34991100430488586,
                    -1.1694124937057495,
                    -1.1560813188552856,
                    -0.6324015259742737
                ]
            ],
            [
                [
                    -0.11832325905561447,
                    0.1602426916360855,
                    -0.011324344202876091,
                    0.16140705347061157,
                    0.0021360840182751417,
                    0.21965518593788147,
                    0.13566696643829346,
                    -0.1642078012228012,
                    0.14011937379837036,
                    -0.10076149553060532,
                    -0.2211199551820755,
                    -0.20930559933185577,
                    0.17498423159122467,
                    -0.20823024213314056,
                    -0.18964962661266327,
                    0.011712992563843727,
                    -0.1018982008099556,
                    -0.0666770413517952,
                    -0.15236200392246246,
                    -0.2703021168708801,
                    -0.20921039581298828,
                    0.6338489055633545,
                    0.03797045350074768,
                    -0.3911948800086975,
                    0.19266732037067413,
                    -0.22953392565250397,
                    -0.2919129431247711,
                    -0.2556397616863251,
                    -0.43819665908813477,
                    0.1577361673116684,
                    -0.22439847886562347,
                    0.07252344489097595,
                    -0.333069384098053,
                    0.13583776354789734,
                    -0.2512631416320801,
                    0.12496911734342575,
                    -0.028478262946009636,
                    -0.32428398728370667,
                    -0.3944591283798218,
                    0.156256765127182
                ],
                [
                    0.3638666868209839,
                    0.34194859862327576,
                    -0.23499248921871185,
                    0.3285483419895172,
                    0.299100786447525,
                    0.2275121510028839,
                    0.16543200612068176,
                    -0.017109276726841927,
                    -0.1479390263557434,
                    -0.1862073689699173,
                    0.06511671096086502,
                    0.003958401270210743,
                    0.18542397022247314,
                    -0.29797109961509705,
                    -0.10819850116968155,
                    -0.31787556409835815,
                    -0.049735311418771744,
                    -0.1031499132514,
                    0.13868743181228638,
                    0.3128907084465027,
                    -0.14854922890663147,
                    0.36052724719047546,
                    0.22277571260929108,
                    -0.44351625442504883,
                    0.17100122570991516,
                    0.2825336158275604,
                    -0.345739483833313,
                    0.03180735185742378,
                    -0.22716419398784637,
                    -0.19105635583400726,
                    -0.09069129824638367,
                    0.2237904816865921,
                    0.10054214298725128,
                    -0.13025794923305511,
                    0.059043411165475845,
                    0.009959712624549866,
                    -0.26467365026474,
                    -0.026021860539913177,
                    -0.12382172048091888,
                    0.3281632959842682
                ],
                [
                    0.3437340557575226,
                    0.2681425213813782,
                    -0.3237417936325073,
                    0.06257513165473938,
                    0.17661574482917786,
                    -0.053440604358911514,
                    -0.2918477952480316,
                    0.29010650515556335,
                    -0.036618851125240326,
                    -0.11301323771476746,
                    -0.07831761986017227,
                    -0.14812147617340088,
                    0.048432063311338425,
                    0.013742797076702118,
                    -0.27288562059402466,
                    0.23381908237934113,
                    0.20303630828857422,
                    -0.0819200798869133,
                    0.11429676413536072,
                    0.23557119071483612,
                    0.09216386824846268,
                    0.20631735026836395,
                    -0.13379326462745667,
                    0.041992053389549255,
                    0.0046640378423035145,
                    -0.11550932377576828,
                    -0.2104737013578415,
                    -0.08421887457370758,
                    -0.2009865641593933,
                    -0.106321319937706,
                    -0.08401122689247131,
                    0.2431623488664627,
                    -0.04645750671625137,
                    -0.24885869026184082,
                    0.002235337160527706,
                    -0.11915237456560135,
                    0.0732867494225502,
                    -0.29827675223350525,
                    -0.31062185764312744,
                    0.054299045354127884
                ],
                [
                    0.2069808840751648,
                    0.40626952052116394,
                    -0.5755078196525574,
                    0.3035566210746765,
                    0.19752785563468933,
                    -0.499754399061203,
                    0.22440989315509796,
                    0.29662206768989563,
                    -0.10213815420866013,
                    0.3912040591239929,
                    0.21465881168842316,
                    0.016537534072995186,
                    -0.004598760977387428,
                    0.0056604789569973946,
                    -0.343294620513916,
                    -0.061051145195961,
                    0.2073480635881424,
                    0.7642996907234192,
                    0.1734892576932907,
                    0.07241087406873703,
                    -0.4766708314418793,
                    0.10238184034824371,
                    0.05162839964032173,
                    -0.2570669651031494,
                    0.6390917301177979,
                    0.02643650770187378,
                    0.138970747590065,
                    0.04207745939493179,
                    -0.17517240345478058,
                    -0.12123564630746841,
                    0.2693243622779846,
                    0.2990330159664154,
                    -0.006624720990657806,
                    -0.37118250131607056,
                    0.2639995515346527,
                    0.1366497129201889,
                    -0.16576313972473145,
                    -0.15620620548725128,
                    -0.047437913715839386,
                    -0.028322309255599976
                ],
                [
                    0.17785203456878662,
                    0.1156538799405098,
                    -0.3078587055206299,
                    0.2880900800228119,
                    -0.26028838753700256,
                    0.08905747532844543,
                    -0.21597212553024292,
                    0.03315242752432823,
                    -0.13861322402954102,
                    0.10128403455018997,
                    0.09682837873697281,
                    0.290656179189682,
                    -0.17760848999023438,
                    0.12014193087816238,
                    0.028822533786296844,
                    0.20894755423069,
                    0.01533586997538805,
                    -0.16290028393268585,
                    0.10430639982223511,
                    -0.2049301564693451,
                    0.289469450712204,
                    0.3513333797454834,
                    -0.047530438750982285,
                    -0.22329910099506378,
                    -0.012741686776280403,
                    0.2739940881729126,
                    -0.1983882039785385,
                    -0.054503828287124634,
                    -0.33197498321533203,
                    -0.18454627692699432,
                    -0.284610390663147,
                    0.36412689089775085,
                    0.13220302760601044,
                    0.09512735903263092,
                    0.24110186100006104,
                    0.2647193670272827,
                    0.0964740589261055,
                    -0.34332939982414246,
                    -0.017225468531250954,
                    0.1903923749923706
                ],
                [
                    0.022366255521774292,
                    0.14240002632141113,
                    -0.3293387293815613,
                    -0.23484967648983002,
                    0.13998450338840485,
                    0.03847327083349228,
                    0.239698588848114,
                    -0.12494827806949615,
                    -0.2971803843975067,
                    -0.07414371520280838,
                    -0.12394990026950836,
                    0.05372149869799614,
                    0.3178119361400604,
                    -0.18242031335830688,
                    -0.16775481402873993,
                    0.15523332357406616,
                    0.08021051436662674,
                    0.0466381311416626,
                    0.019599322229623795,
                    -0.2490745633840561,
                    -0.059473153203725815,
                    0.4010401666164398,
                    0.14222300052642822,
                    -0.3198253810405731,
                    0.23313502967357635,
                    -0.02268826775252819,
                    -0.3209253251552582,
                    -0.19942060112953186,
                    -0.4440656006336212,
                    0.35831332206726074,
                    -0.12293285876512527,
                    0.0686761662364006,
                    -0.3356885015964508,
                    -0.2606251835823059,
                    0.04683201387524605,
                    0.3136543333530426,
                    0.18137122690677643,
                    -0.4303250312805176,
                    -0.017437882721424103,
                    0.37148159742355347
                ],
                [
                    0.29956451058387756,
                    0.4335332214832306,
                    -0.40530940890312195,
                    -0.0025925463996827602,
                    0.15231987833976746,
                    -0.5467640161514282,
                    0.1906106173992157,
                    0.1444755643606186,
                    -0.22161562740802765,
                    -0.2350679188966751,
                    -0.007437149994075298,
                    -0.11291208118200302,
                    0.09592974185943604,
                    -0.2072003036737442,
                    -0.28669989109039307,
                    -0.024499965831637383,
                    0.03002157434821129,
                    0.732799768447876,
                    0.20665718615055084,
                    -0.2268320918083191,
                    -0.2707667052745819,
                    0.09919911623001099,
                    0.08973964303731918,
                    -0.293342262506485,
                    0.14174428582191467,
                    0.1795758455991745,
                    -0.25313735008239746,
                    -0.2276041954755783,
                    -0.1645912081003189,
                    0.1334008276462555,
                    -0.17551398277282715,
                    0.14785462617874146,
                    -0.16964679956436157,
                    -0.2908557951450348,
                    -0.16962304711341858,
                    0.2976358234882355,
                    -0.012327969074249268,
                    0.08328118175268173,
                    -0.09563884884119034,
                    0.25959572196006775
                ],
                [
                    0.3059825003147125,
                    0.062030743807554245,
                    0.07216419279575348,
                    -0.282047837972641,
                    -0.1285874992609024,
                    0.06607483327388763,
                    -0.30011337995529175,
                    -0.033584777265787125,
                    -0.06999728083610535,
                    -0.15534548461437225,
                    -0.03379751741886139,
                    -0.06445842236280441,
                    -0.01788109540939331,
                    -0.10947878658771515,
                    -0.405117005109787,
                    0.1970745474100113,
                    -0.26797884702682495,
                    -0.3281278908252716,
                    0.27133578062057495,
                    0.10751385986804962,
                    0.2926546037197113,
                    -0.16504396498203278,
                    -0.26617956161499023,
                    -0.21264199912548065,
                    -0.3465754985809326,
                    -0.130226731300354,
                    0.05002177506685257,
                    0.055017270147800446,
                    -0.021511979401111603,
                    -0.2732307016849518,
                    -0.14005249738693237,
                    -0.0631398931145668,
                    -0.3048883378505707,
                    0.09958003461360931,
                    0.17406001687049866,
                    0.11144954711198807,
                    0.2176426500082016,
                    -0.21757230162620544,
                    -0.15955303609371185,
                    0.035702962428331375
                ],
                [
                    -0.15241001546382904,
                    -0.1973639726638794,
                    -0.3710063695907593,
                    0.2459312230348587,
                    0.25375282764434814,
                    -0.29318559169769287,
                    -0.2691866457462311,
                    0.00402930798009038,
                    -0.2476700097322464,
                    0.005551888141781092,
                    -0.18044182658195496,
                    0.11297941952943802,
                    0.15622848272323608,
                    -0.19610777497291565,
                    -0.05325435474514961,
                    -0.020726319402456284,
                    -0.05641552060842514,
                    0.366452157497406,
                    -0.05770116299390793,
                    -0.055653974413871765,
                    0.09648483991622925,
                    0.23482321202754974,
                    0.012526609003543854,
                    0.05008840933442116,
                    0.1456146389245987,
                    0.30228477716445923,
                    -0.30615946650505066,
                    -0.235050767660141,
                    0.15066052973270416,
                    -0.07188690453767776,
                    0.10109564661979675,
                    -0.2192092090845108,
                    -0.3393251299858093,
                    -0.26264867186546326,
                    0.2362343966960907,
                    0.09074793756008148,
                    -0.14811214804649353,
                    -0.2866813540458679,
                    -0.36205700039863586,
                    0.15105175971984863
                ],
                [
                    -0.17206183075904846,
                    -0.009111108258366585,
                    -0.27795159816741943,
                    -0.28789517283439636,
                    0.03122454322874546,
                    -0.17083539068698883,
                    -0.32393088936805725,
                    0.2990627586841583,
                    0.12891879677772522,
                    -0.02717229537665844,
                    0.19523750245571136,
                    0.1264500766992569,
                    -0.19408154487609863,
                    0.31105995178222656,
                    0.06507132202386856,
                    0.4704115688800812,
                    -0.247980535030365,
                    0.39686429500579834,
                    0.09206949174404144,
                    0.14776936173439026,
                    -0.3725756108760834,
                    -0.032500945031642914,
                    -0.009576063603162766,
                    -0.2609202563762665,
                    0.5757638216018677,
                    -0.33102983236312866,
                    -0.25901952385902405,
                    -0.4453469514846802,
                    0.04471246898174286,
                    0.30700090527534485,
                    -0.3481663167476654,
                    0.32534217834472656,
                    -0.28609365224838257,
                    -0.2833152711391449,
                    -0.28091615438461304,
                    0.1886574625968933,
                    -0.023291945457458496,
                    0.07087171822786331,
                    0.11174938082695007,
                    0.020115261897444725
                ],
                [
                    -0.10781120508909225,
                    0.21288931369781494,
                    -0.2185041755437851,
                    -0.025212014093995094,
                    0.3930490016937256,
                    -0.09097937494516373,
                    0.2271423190832138,
                    -0.058478083461523056,
                    -0.2954549193382263,
                    -0.1906975507736206,
                    -0.26565247774124146,
                    0.27489179372787476,
                    0.19132883846759796,
                    -0.08640773594379425,
                    -0.14480136334896088,
                    0.05891711264848709,
                    0.09538193047046661,
                    0.2046402543783188,
                    -0.2717483937740326,
                    -0.24421969056129456,
                    0.01666204445064068,
                    -0.21032579243183136,
                    0.3239630162715912,
                    -0.1425211876630783,
                    -0.13788804411888123,
                    0.13131879270076752,
                    -0.06690427660942078,
                    -0.1284891664981842,
                    -0.1451207548379898,
                    -0.129588320851326,
                    -0.11279477179050446,
                    -0.0923529714345932,
                    0.07612034678459167,
                    0.15430226922035217,
                    0.08404699712991714,
                    0.3057185411453247,
                    -0.18380001187324524,
                    -0.11498180031776428,
                    -0.13699325919151306,
                    0.03324073553085327
                ],
                [
                    0.0800541415810585,
                    0.2304380238056183,
                    -0.17829686403274536,
                    -0.02634044550359249,
                    0.2306293100118637,
                    0.017526350915431976,
                    -0.18015584349632263,
                    0.24231085181236267,
                    -0.06683341413736343,
                    0.00486850505694747,
                    -0.022594086825847626,
                    0.4340934753417969,
                    -0.20983847975730896,
                    -0.14108054339885712,
                    0.03972766920924187,
                    -0.22223594784736633,
                    0.20017392933368683,
                    -0.05208900570869446,
                    0.2926924228668213,
                    -0.06252239644527435,
                    0.19481848180294037,
                    0.16612808406352997,
                    -0.031608060002326965,
                    -0.18836040794849396,
                    -0.1436716914176941,
                    0.22726847231388092,
                    -0.1394045054912567,
                    0.1942487508058548,
                    0.1273072063922882,
                    -0.020930059254169464,
                    -0.22703614830970764,
                    -0.1684345006942749,
                    0.027248086407780647,
                    0.10560639947652817,
                    0.17156147956848145,
                    -0.015779508277773857,
                    0.1320284754037857,
                    -0.22544355690479279,
                    0.1680503785610199,
                    -0.15652358531951904
                ],
                [
                    0.09456371515989304,
                    -0.06483777612447739,
                    -0.39813005924224854,
                    -0.049686137586832047,
                    0.2510991096496582,
                    0.0575786754488945,
                    -0.20110087096691132,
                    0.2291804403066635,
                    0.1948467493057251,
                    0.2767275869846344,
                    -0.10508274286985397,
                    0.1020699217915535,
                    0.013967173174023628,
                    0.15442803502082825,
                    -0.11843584477901459,
                    0.12467043101787567,
                    -0.22679507732391357,
                    -0.2792161703109741,
                    0.26900938153266907,
                    0.3477892577648163,
                    0.25851935148239136,
                    0.5379955172538757,
                    -0.1894574761390686,
                    -0.054744869470596313,
                    0.05099033936858177,
                    0.19517381489276886,
                    -0.3113801181316376,
                    -0.026311621069908142,
                    -0.23460721969604492,
                    -0.20633642375469208,
                    -0.23970526456832886,
                    0.1660350114107132,
                    0.21344754099845886,
                    -0.35481300950050354,
                    -0.2756713628768921,
                    -0.1370573341846466,
                    -0.07210042327642441,
                    -0.03950359672307968,
                    -0.049002885818481445,
                    -0.11602827906608582
                ],
                [
                    0.2871808707714081,
                    0.36939284205436707,
                    -0.13598118722438812,
                    -0.2158995121717453,
                    0.3015235960483551,
                    -0.3600057363510132,
                    0.0027948403730988503,
                    0.30870798230171204,
                    0.16449032723903656,
                    0.17596395313739777,
                    0.3189372420310974,
                    0.3377193510532379,
                    -0.1444852650165558,
                    0.2587997317314148,
                    -0.16359753906726837,
                    -0.2277989685535431,
                    0.15518291294574738,
                    0.09518133103847504,
                    -0.18780457973480225,
                    -0.4158915579319,
                    -0.09972012788057327,
                    -0.20603342354297638,
                    -0.0644013062119484,
                    -0.05132465809583664,
                    -0.22496730089187622,
                    0.28635624051094055,
                    0.12264564633369446,
                    0.14996792376041412,
                    0.22969962656497955,
                    -0.25412485003471375,
                    0.24403904378414154,
                    0.27188631892204285,
                    0.1188187524676323,
                    0.15113294124603271,
                    -0.3201407790184021,
                    -0.1504288762807846,
                    -0.28181254863739014,
                    0.14513450860977173,
                    0.054760828614234924,
                    0.3214946389198303
                ],
                [
                    0.17318393290042877,
                    -0.006299787666648626,
                    0.06162043660879135,
                    0.2059917151927948,
                    0.21399277448654175,
                    -0.04410934075713158,
                    0.049184706062078476,
                    0.013307812623679638,
                    -0.4132755696773529,
                    -0.18465368449687958,
                    -0.01667395979166031,
                    0.050177253782749176,
                    -0.1394246220588684,
                    -0.006720762699842453,
                    -0.3292686641216278,
                    -0.14592427015304565,
                    -0.09357248991727829,
                    0.15711073577404022,
                    0.316024512052536,
                    0.2580552399158478,
                    -0.1538819968700409,
                    0.16288849711418152,
                    -0.089567169547081,
                    0.09320129454135895,
                    -0.07036811113357544,
                    0.3666214942932129,
                    0.14113931357860565,
                    -0.2983337640762329,
                    0.12431710958480835,
                    -0.18619972467422485,
                    0.3560961186885834,
                    0.20108892023563385,
                    0.0829353854060173,
                    0.2730325758457184,
                    0.013636904768645763,
                    0.2945384681224823,
                    0.1366235464811325,
                    -0.30818989872932434,
                    -0.21329285204410553,
                    -0.2754095792770386
                ],
                [
                    0.18009500205516815,
                    0.38695773482322693,
                    0.11646111309528351,
                    -0.19227153062820435,
                    -0.0967475101351738,
                    -0.038738325238227844,
                    0.07636694610118866,
                    -0.23765797913074493,
                    0.12531599402427673,
                    0.23529641330242157,
                    0.3670926094055176,
                    -0.07724126428365707,
                    0.06495732814073563,
                    -0.0893840417265892,
                    -0.00030017810058780015,
                    -0.17546968162059784,
                    0.18986058235168457,
                    -0.08400499820709229,
                    0.14442923665046692,
                    0.09842636436223984,
                    0.12036111205816269,
                    0.3585399091243744,
                    0.016065211966633797,
                    -0.13435405492782593,
                    0.32646507024765015,
                    -0.06315581500530243,
                    -0.1226058229804039,
                    -0.3089093863964081,
                    0.19172832369804382,
                    -0.21871252357959747,
                    -0.24851101636886597,
                    0.3044048547744751,
                    0.06196459382772446,
                    -0.2671315670013428,
                    -0.15239492058753967,
                    -0.1992412507534027,
                    0.1412222534418106,
                    -0.2604272961616516,
                    0.20086286962032318,
                    -0.0424472950398922
                ],
                [
                    0.11375117301940918,
                    0.1815149188041687,
                    -0.30229315161705017,
                    0.21422189474105835,
                    0.19533391296863556,
                    0.11502818018198013,
                    0.0295935720205307,
                    0.18368832767009735,
                    0.13009591400623322,
                    0.04957282915711403,
                    0.21188582479953766,
                    0.10644788295030594,
                    0.05216418579220772,
                    0.12125442177057266,
                    0.04432547464966774,
                    -0.0917358249425888,
                    0.21691745519638062,
                    0.13493219017982483,
                    0.0002979999117087573,
                    -0.29498523473739624,
                    -0.2845093607902527,
                    0.45541977882385254,
                    -0.10199399292469025,
                    -0.47064703702926636,
                    0.37117722630500793,
                    -0.3534605801105499,
                    -0.2317817360162735,
                    0.06841282546520233,
                    -0.23260289430618286,
                    -0.2507518231868744,
                    -0.005304000340402126,
                    -0.0952540934085846,
                    -0.16150589287281036,
                    0.25943708419799805,
                    -0.3874547779560089,
                    -0.1267051100730896,
                    -0.20034797489643097,
                    -0.27138417959213257,
                    -0.4304531216621399,
                    0.03400982916355133
                ],
                [
                    -0.15992766618728638,
                    0.010037843137979507,
                    -0.15983673930168152,
                    -0.049300987273454666,
                    0.2738284766674042,
                    0.29420700669288635,
                    -0.323125958442688,
                    -0.22983203828334808,
                    -0.05346215143799782,
                    -0.05453423783183098,
                    -0.13597996532917023,
                    0.26305142045021057,
                    0.06653520464897156,
                    0.0956139788031578,
                    -0.4310007691383362,
                    0.09332394599914551,
                    -0.17481710016727448,
                    -0.3883814215660095,
                    0.07439781725406647,
                    0.2060270607471466,
                    0.1065981537103653,
                    0.008075127378106117,
                    -0.01824125461280346,
                    -0.18861179053783417,
                    -0.4505084753036499,
                    0.41364040970802307,
                    0.07876186817884445,
                    -0.4126751720905304,
                    -0.2675579786300659,
                    -0.07686110585927963,
                    -0.08885055035352707,
                    0.42388415336608887,
                    -0.2534172534942627,
                    0.33657050132751465,
                    0.08599977940320969,
                    0.24442538619041443,
                    -0.3314235806465149,
                    0.12181848287582397,
                    -0.42205294966697693,
                    0.39416950941085815
                ],
                [
                    0.07610447704792023,
                    0.34153521060943604,
                    -0.43846526741981506,
                    -0.3045635521411896,
                    0.16452929377555847,
                    0.2829853594303131,
                    -0.19144943356513977,
                    0.04375255107879639,
                    -0.28630581498146057,
                    -0.15952542424201965,
                    0.0779256820678711,
                    0.08369924128055573,
                    -0.1563151776790619,
                    -0.10305054485797882,
                    -0.06813009083271027,
                    0.260598361492157,
                    0.16606339812278748,
                    -0.31911730766296387,
                    -0.17859439551830292,
                    -0.0006031017401255667,
                    0.11220161616802216,
                    0.12054797261953354,
                    0.07445830851793289,
                    -0.3505991995334625,
                    -0.18799005448818207,
                    0.32798975706100464,
                    -0.295132040977478,
                    -0.26565223932266235,
                    0.04807969555258751,
                    0.26256537437438965,
                    0.05761414393782616,
                    0.01631101965904236,
                    0.12432002276182175,
                    0.19978441298007965,
                    0.031722407788038254,
                    0.06766559928655624,
                    0.14769020676612854,
                    -0.26653382182121277,
                    -0.34313851594924927,
                    0.007190864998847246
                ],
                [
                    0.12090089917182922,
                    0.3207465410232544,
                    -0.06403815001249313,
                    -0.19311803579330444,
                    0.015318631194531918,
                    -0.07376265525817871,
                    -0.20445898175239563,
                    -0.027662202715873718,
                    -0.24931712448596954,
                    0.1661832332611084,
                    -0.24740345776081085,
                    0.3242577910423279,
                    -0.2719768285751343,
                    0.24087978899478912,
                    0.18920424580574036,
                    0.05109700560569763,
                    0.11313212662935257,
                    -0.5665069818496704,
                    0.09857752174139023,
                    0.015294285491108894,
                    0.2530255913734436,
                    0.1583549976348877,
                    0.042061496526002884,
                    -0.2663916051387787,
                    -0.6004023551940918,
                    -0.11021779477596283,
                    -0.38442254066467285,
                    -0.1520342379808426,
                    -0.3129253685474396,
                    0.19623227417469025,
                    0.11368165910243988,
                    -0.06622089445590973,
                    0.08493240922689438,
                    -0.2428654134273529,
                    0.004516113083809614,
                    0.21590280532836914,
                    -0.2471420168876648,
                    -0.08857429027557373,
                    -0.10366736352443695,
                    -0.10448984801769257
                ],
                [
                    0.20999661087989807,
                    0.12072621285915375,
                    -0.1721225082874298,
                    0.06482456624507904,
                    0.11316780745983124,
                    0.2653869092464447,
                    0.0013765888288617134,
                    0.29488763213157654,
                    -0.08975113928318024,
                    0.12681595981121063,
                    -0.1137721836566925,
                    0.09361764043569565,
                    0.3420884907245636,
                    0.022677168250083923,
                    -0.21803924441337585,
                    -0.06663905084133148,
                    -0.17016881704330444,
                    -0.5587881803512573,
                    -0.1612197458744049,
                    0.058400433510541916,
                    0.2924520671367645,
                    -0.0063851806335151196,
                    0.2946805953979492,
                    -0.04763539135456085,
                    -0.3123268485069275,
                    0.2567219138145447,
                    0.11920633167028427,
                    -0.38556429743766785,
                    0.006704898551106453,
                    0.3059721887111664,
                    -0.10185542702674866,
                    0.14106905460357666,
                    -0.06053215265274048,
                    -0.2201017439365387,
                    0.011408506892621517,
                    0.00037838995922356844,
                    0.25897419452667236,
                    -0.25056788325309753,
                    0.03081527166068554,
                    0.07738449424505234
                ],
                [
                    0.3400411307811737,
                    0.12414662539958954,
                    -0.08923781663179398,
                    -0.1808505356311798,
                    -0.2030465304851532,
                    -0.2007984071969986,
                    0.17904306948184967,
                    0.27056193351745605,
                    -0.2933421730995178,
                    0.12389635294675827,
                    -0.23428402841091156,
                    0.05712980404496193,
                    0.16008099913597107,
                    0.16621047258377075,
                    -0.09480319172143936,
                    -0.20131398737430573,
                    -0.2247912883758545,
                    -0.08303679525852203,
                    -0.2770611047744751,
                    0.16775965690612793,
                    -0.12868919968605042,
                    0.3485812544822693,
                    0.1625182032585144,
                    -0.3896573483943939,
                    -0.16579055786132812,
                    -0.011727784760296345,
                    -0.4048166275024414,
                    -0.0917700007557869,
                    0.13845711946487427,
                    0.2533133924007416,
                    0.23746134340763092,
                    0.30419158935546875,
                    -0.04006515443325043,
                    0.2308868020772934,
                    -0.12451163679361343,
                    -0.06948632001876831,
                    -0.26680657267570496,
                    -0.11088469624519348,
                    0.003728320589289069,
                    0.0920957401394844
                ],
                [
                    0.07423704862594604,
                    0.3957544267177582,
                    0.02918221615254879,
                    -0.23133160173892975,
                    0.3321366608142853,
                    0.18846775591373444,
                    -0.013078130781650543,
                    0.006445105653256178,
                    -0.20685943961143494,
                    -0.007565053645521402,
                    0.16677328944206238,
                    -0.27914223074913025,
                    -0.18659386038780212,
                    0.0680803507566452,
                    -0.3620668649673462,
                    -0.08356083929538727,
                    -0.14963851869106293,
                    0.31654849648475647,
                    0.17561885714530945,
                    0.033214278519153595,
                    0.0005400485824793577,
                    0.014035643078386784,
                    -0.1769588589668274,
                    -0.3633330762386322,
                    0.12361305207014084,
                    -0.0854935273528099,
                    -0.11344081908464432,
                    -0.05508911982178688,
                    -0.3323291540145874,
                    0.040149986743927,
                    -0.1619206666946411,
                    0.313679963350296,
                    -0.2289493978023529,
                    -0.26334911584854126,
                    0.018203657120466232,
                    -0.11405882239341736,
                    0.1979021430015564,
                    -0.04333256185054779,
                    -0.11881694942712784,
                    -0.22632692754268646
                ],
                [
                    0.093449667096138,
                    0.31807056069374084,
                    -0.4370344579219818,
                    0.3066564202308655,
                    -0.07909780740737915,
                    0.13938045501708984,
                    -0.02986738085746765,
                    0.17682228982448578,
                    0.040927376598119736,
                    -0.10569163411855698,
                    0.09296702593564987,
                    0.28128647804260254,
                    -0.15986593067646027,
                    0.06367920339107513,
                    -0.2728869616985321,
                    -0.17436444759368896,
                    0.0019490971462801099,
                    -0.062079913914203644,
                    -0.10514847189188004,
                    -0.20923125743865967,
                    -0.19791844487190247,
                    0.3229089677333832,
                    0.2804466485977173,
                    -0.1545761376619339,
                    -0.42073923349380493,
                    0.35727789998054504,
                    -0.23704032599925995,
                    -0.2690177261829376,
                    -0.06009580194950104,
                    0.055392954498529434,
                    -0.2043275237083435,
                    0.0657033696770668,
                    -0.16844117641448975,
                    -0.23842701315879822,
                    -0.21944659948349,
                    0.3215315639972687,
                    0.03925824537873268,
                    -0.07963648438453674,
                    0.10184155404567719,
                    0.26228371262550354
                ],
                [
                    0.35360148549079895,
                    0.3635844886302948,
                    0.1838412582874298,
                    -0.185743048787117,
                    -0.12052801996469498,
                    0.18136005103588104,
                    -0.30942776799201965,
                    0.16427306830883026,
                    -0.1592530906200409,
                    -0.20626458525657654,
                    -0.2741762399673462,
                    -0.20592576265335083,
                    -0.26707419753074646,
                    -0.006769891362637281,
                    -0.1161501556634903,
                    -0.3154873251914978,
                    0.24502260982990265,
                    -0.05517344921827316,
                    -0.031085019931197166,
                    0.3345053195953369,
                    0.264218270778656,
                    0.3091924488544464,
                    0.1329796314239502,
                    -0.41597360372543335,
                    -0.20166949927806854,
                    0.2582750916481018,
                    -0.12618118524551392,
                    0.07664695382118225,
                    -0.3536849915981293,
                    -0.08135654032230377,
                    -0.1689639538526535,
                    0.3065500259399414,
                    0.045758962631225586,
                    -0.2782250940799713,
                    0.09568740427494049,
                    0.20830540359020233,
                    0.2775300145149231,
                    -0.29417648911476135,
                    0.20199598371982574,
                    -0.09471014142036438
                ],
                [
                    0.40416792035102844,
                    -0.15001492202281952,
                    -0.3568169176578522,
                    -0.33922895789146423,
                    0.15931092202663422,
                    -0.03511997312307358,
                    0.1261395514011383,
                    0.013009108603000641,
                    -0.1975804567337036,
                    0.3371373116970062,
                    -0.10524973273277283,
                    0.4394091069698334,
                    0.0664893388748169,
                    0.09568099677562714,
                    -0.1289609670639038,
                    -0.02208145149052143,
                    -0.15009289979934692,
                    -0.3114451467990875,
                    -0.060157086700201035,
                    -0.337363064289093,
                    0.10206039249897003,
                    0.18581829965114594,
                    -0.14435046911239624,
                    0.08301785588264465,
                    -0.44947800040245056,
                    -0.04331204295158386,
                    0.04119465500116348,
                    -0.054031431674957275,
                    -0.15967881679534912,
                    0.007308347150683403,
                    0.199722021818161,
                    0.04731794819235802,
                    0.28005677461624146,
                    0.331394225358963,
                    -0.18830715119838715,
                    0.14700675010681152,
                    0.0019873774144798517,
                    -0.3495432734489441,
                    0.0496586374938488,
                    -0.15424424409866333
                ],
                [
                    -0.27217328548431396,
                    0.019399847835302353,
                    -0.12822115421295166,
                    0.25567179918289185,
                    -0.045616794377565384,
                    -0.20379625260829926,
                    -0.018266454339027405,
                    -0.1658640056848526,
                    0.042061954736709595,
                    -0.045562829822301865,
                    0.1266670823097229,
                    -0.25415024161338806,
                    -0.12811429798603058,
                    -0.17036348581314087,
                    0.14640945196151733,
                    0.29818660020828247,
                    -0.22426682710647583,
                    -0.09794992953538895,
                    0.22839361429214478,
                    -0.14342571794986725,
                    -0.17871028184890747,
                    0.26302480697631836,
                    -0.29208746552467346,
                    0.08100307732820511,
                    0.12954238057136536,
                    -0.23355835676193237,
                    -0.47500136494636536,
                    0.11562570184469223,
                    -0.04311027750372887,
                    -0.061114754527807236,
                    -0.348712682723999,
                    0.01709899678826332,
                    -0.17169860005378723,
                    0.24628077447414398,
                    -0.18779784440994263,
                    0.15308083593845367,
                    -0.16403841972351074,
                    0.03976723179221153,
                    -0.13862213492393494,
                    0.054446350783109665
                ],
                [
                    0.1386161595582962,
                    0.2073788046836853,
                    0.22031088173389435,
                    0.12319574505090714,
                    0.09986536204814911,
                    -0.22135524451732635,
                    -0.07983949780464172,
                    0.14113903045654297,
                    -0.31725209951400757,
                    -0.2064143419265747,
                    -0.2836313843727112,
                    -0.012199820019304752,
                    -0.26881006360054016,
                    -0.22459931671619415,
                    -0.23957665264606476,
                    0.10759755969047546,
                    -0.03548065572977066,
                    -0.5070773959159851,
                    -0.25147315859794617,
                    -0.20706595480442047,
                    0.45156216621398926,
                    0.1414213478565216,
                    -0.2199556976556778,
                    0.02913176827132702,
                    -0.4168599247932434,
                    0.3065456748008728,
                    0.14029984176158905,
                    -0.22030746936798096,
                    -0.1308196634054184,
                    0.04124033823609352,
                    0.3126096725463867,
                    -0.0019414103589951992,
                    -0.07169317454099655,
                    -0.14555029571056366,
                    -0.004651638213545084,
                    0.2881285846233368,
                    -0.25482410192489624,
                    -0.2507239580154419,
                    -0.0228801928460598,
                    0.06370256096124649
                ],
                [
                    0.4290851354598999,
                    0.17230169475078583,
                    -0.11162258684635162,
                    -0.23491714894771576,
                    0.33751508593559265,
                    -0.10023685544729233,
                    -0.3319852650165558,
                    0.2691667377948761,
                    -0.2939736545085907,
                    0.02050391398370266,
                    -0.24111264944076538,
                    0.31204208731651306,
                    -0.06619182974100113,
                    0.09027113765478134,
                    0.20455357432365417,
                    0.2089449167251587,
                    -0.2319951355457306,
                    0.1259157657623291,
                    -0.24006547033786774,
                    -0.14900225400924683,
                    -0.05124542489647865,
                    -0.07824600487947464,
                    -0.26929545402526855,
                    -0.11534958332777023,
                    -0.43134331703186035,
                    0.3837663531303406,
                    0.19687114655971527,
                    -0.2793644368648529,
                    -0.12676388025283813,
                    0.08357388526201248,
                    0.3197377622127533,
                    0.36384710669517517,
                    0.16462916135787964,
                    -0.20821459591388702,
                    0.202169731259346,
                    -0.06998909264802933,
                    0.2912469804286957,
                    0.19204537570476532,
                    -0.4135800898075104,
                    0.3429967761039734
                ],
                [
                    -0.13974130153656006,
                    0.09416863322257996,
                    -0.41054919362068176,
                    0.2120865136384964,
                    -0.13366566598415375,
                    -0.047925978899002075,
                    -0.1466861218214035,
                    -0.2738984525203705,
                    -0.005061779171228409,
                    -0.026830216869711876,
                    0.19615331292152405,
                    0.22645902633666992,
                    -0.09212163835763931,
                    -0.14525000751018524,
                    -0.3965294659137726,
                    0.32010647654533386,
                    -0.16148090362548828,
                    0.6820139288902283,
                    0.21459908783435822,
                    -0.2311314195394516,
                    -0.22220532596111298,
                    -0.003082907758653164,
                    0.1538124829530716,
                    -0.018849484622478485,
                    0.4776933491230011,
                    0.1060643121600151,
                    0.15555794537067413,
                    0.09784737229347229,
                    0.0642210841178894,
                    0.23171161115169525,
                    0.08272286504507065,
                    -0.11739198118448257,
                    -0.3315545618534088,
                    0.007747017312794924,
                    0.10085385292768478,
                    0.38105881214141846,
                    -0.1967076063156128,
                    -0.3589451313018799,
                    -0.2330453246831894,
                    0.05990300327539444
                ],
                [
                    0.20379339158535004,
                    0.231628879904747,
                    0.06679020822048187,
                    -0.13597264885902405,
                    0.17459194362163544,
                    -0.23208074271678925,
                    -0.2940240502357483,
                    -0.07567005604505539,
                    0.13748064637184143,
                    -0.2738597095012665,
                    -0.11995620280504227,
                    0.07786207646131516,
                    0.07621864974498749,
                    0.08234753459692001,
                    -0.042612478137016296,
                    0.08169823884963989,
                    0.15623070299625397,
                    -0.2357548326253891,
                    0.23237287998199463,
                    0.16951948404312134,
                    -0.06039748340845108,
                    -0.034591253846883774,
                    -0.23701255023479462,
                    0.17368152737617493,
                    -0.0330231599509716,
                    0.08634928613901138,
                    0.19298042356967926,
                    0.22537057101726532,
                    -0.028446637094020844,
                    0.030534200370311737,
                    -0.19821929931640625,
                    0.23819606006145477,
                    -0.2885791063308716,
                    0.22802826762199402,
                    -0.048308294266462326,
                    0.1148008331656456,
                    -0.23121634125709534,
                    -0.0323713943362236,
                    -0.2873823344707489,
                    0.07063224911689758
                ],
                [
                    0.27463454008102417,
                    0.08335035294294357,
                    -0.32074838876724243,
                    0.19552621245384216,
                    0.3301123082637787,
                    0.135525181889534,
                    -0.16716410219669342,
                    -0.2809249460697174,
                    -0.2155156135559082,
                    0.3075244128704071,
                    0.23719750344753265,
                    0.11642923206090927,
                    0.14114919304847717,
                    -0.13863642513751984,
                    0.09933607280254364,
                    -0.2041710615158081,
                    0.06078975275158882,
                    0.016659531742334366,
                    0.026638178154826164,
                    -0.2699167728424072,
                    -0.2516457438468933,
                    0.34075140953063965,
                    0.09650420397520065,
                    -0.09673260152339935,
                    0.034491926431655884,
                    0.29501989483833313,
                    -0.37280064821243286,
                    0.05247320234775543,
                    -0.3064034581184387,
                    0.32167425751686096,
                    -0.36046335101127625,
                    0.007281588390469551,
                    -0.13060913980007172,
                    0.021013475954532623,
                    0.2005106657743454,
                    0.38086163997650146,
                    0.23394475877285004,
                    -0.1455213874578476,
                    0.04732423275709152,
                    0.2652174234390259
                ],
                [
                    0.23221728205680847,
                    -0.14236612617969513,
                    -0.2986569106578827,
                    0.33654293417930603,
                    -0.19322873651981354,
                    -0.025539837777614594,
                    -0.3395117223262787,
                    0.03621816262602806,
                    0.21988847851753235,
                    -0.10849511623382568,
                    -0.14876413345336914,
                    0.06458355486392975,
                    -0.05643320828676224,
                    -0.12366268038749695,
                    -0.08925650268793106,
                    -0.16297641396522522,
                    -0.03001405857503414,
                    -0.16617806255817413,
                    -0.1577545404434204,
                    -0.18146520853042603,
                    0.13962623476982117,
                    0.17261791229248047,
                    0.2702655792236328,
                    -0.01247878186404705,
                    -0.030513430014252663,
                    0.20184648036956787,
                    0.1658862978219986,
                    -0.30499041080474854,
                    -0.26081234216690063,
                    -0.09823723137378693,
                    -0.07413627952337265,
                    -0.20036135613918304,
                    -0.18718302249908447,
                    0.14160962402820587,
                    -0.07571253180503845,
                    0.10444458574056625,
                    -0.21267980337142944,
                    -0.43140706419944763,
                    -0.18813058733940125,
                    0.40185603499412537
                ],
                [
                    0.2857282757759094,
                    0.4076625406742096,
                    -0.17063875496387482,
                    0.3372613191604614,
                    0.2566867768764496,
                    -0.10811019688844681,
                    -0.2683475911617279,
                    -0.17256519198417664,
                    -0.21858784556388855,
                    0.10937365144491196,
                    0.29973137378692627,
                    -0.07785703986883163,
                    -0.26910650730133057,
                    0.1826237440109253,
                    -0.3758734166622162,
                    -0.1391049325466156,
                    -0.24853026866912842,
                    -0.14514948427677155,
                    -0.07097800076007843,
                    0.09507062286138535,
                    0.2574109137058258,
                    -0.16531066596508026,
                    0.25886762142181396,
                    -0.004237556830048561,
                    0.0065968772396445274,
                    -0.148079514503479,
                    0.13072717189788818,
                    -0.3317584991455078,
                    0.11347834765911102,
                    -0.1303468644618988,
                    0.2596447169780731,
                    -0.01572078838944435,
                    -0.06759797781705856,
                    -0.08675284683704376,
                    0.19097045063972473,
                    0.3622180223464966,
                    0.201528400182724,
                    -0.17574869096279144,
                    -0.384570837020874,
                    -0.04328272491693497
                ],
                [
                    0.23551854491233826,
                    0.13008856773376465,
                    -0.22684131562709808,
                    0.04866797477006912,
                    0.13269458711147308,
                    -0.31668776273727417,
                    -0.14396104216575623,
                    0.1892976611852646,
                    -0.3144168257713318,
                    -0.34407278895378113,
                    -0.09752167016267776,
                    0.26563534140586853,
                    -0.20500369369983673,
                    0.2216249257326126,
                    0.04072500020265579,
                    -0.23825064301490784,
                    0.0629817321896553,
                    0.0444575771689415,
                    -0.010989710688591003,
                    -0.09576655179262161,
                    0.1210377961397171,
                    -0.2640435993671417,
                    0.2405252903699875,
                    0.013639354147017002,
                    0.16130253672599792,
                    -0.17193271219730377,
                    -0.11543374508619308,
                    0.07003059983253479,
                    0.06687726825475693,
                    -0.01803216151893139,
                    0.30085185170173645,
                    0.36830759048461914,
                    -0.1904619336128235,
                    0.3893400728702545,
                    0.14485977590084076,
                    0.28104710578918457,
                    0.20250803232192993,
                    0.03580675646662712,
                    0.15095862746238708,
                    0.17019793391227722
                ],
                [
                    -0.17373362183570862,
                    -0.12346886098384857,
                    -0.20206812024116516,
                    -0.14094625413417816,
                    0.06234799325466156,
                    0.0020134395454078913,
                    -0.21757952868938446,
                    -0.16778136789798737,
                    -0.31613796949386597,
                    0.07317205518484116,
                    -0.0421537421643734,
                    0.12045999616384506,
                    0.24180223047733307,
                    0.038507841527462006,
                    -0.31372129917144775,
                    -0.15768204629421234,
                    0.28771883249282837,
                    0.016259755939245224,
                    0.28808537125587463,
                    0.048026129603385925,
                    0.018942978233098984,
                    0.09649273008108139,
                    -0.1934572160243988,
                    0.12116833031177521,
                    -0.027826471254229546,
                    0.06355800479650497,
                    -0.09818778932094574,
                    -0.05422681197524071,
                    0.17358408868312836,
                    -0.2670480012893677,
                    -0.24414126574993134,
                    0.2554507553577423,
                    0.20157450437545776,
                    0.010477066040039062,
                    0.005444567184895277,
                    -0.20479126274585724,
                    0.1955423802137375,
                    -0.306194007396698,
                    -0.2630615830421448,
                    0.17140333354473114
                ],
                [
                    0.21316562592983246,
                    -0.057001739740371704,
                    -0.33843743801116943,
                    -0.08213360607624054,
                    0.1411782056093216,
                    0.01545216329395771,
                    0.19252178072929382,
                    -0.08689781278371811,
                    0.03242705762386322,
                    0.11420799791812897,
                    0.1965331882238388,
                    0.05990687385201454,
                    0.24395041167736053,
                    -0.15482573211193085,
                    0.12266656756401062,
                    0.13771076500415802,
                    0.2382706254720688,
                    -0.22376160323619843,
                    0.32852548360824585,
                    -0.04603763297200203,
                    0.07768044620752335,
                    -0.23789195716381073,
                    -0.18178503215312958,
                    -0.3306363523006439,
                    -0.34434372186660767,
                    0.2456359565258026,
                    -0.250135213136673,
                    0.10281933844089508,
                    -0.009107808582484722,
                    0.30904820561408997,
                    -0.21620608866214752,
                    0.12676799297332764,
                    0.12051854282617569,
                    0.12593293190002441,
                    0.041095614433288574,
                    0.08893290907144547,
                    -0.056428901851177216,
                    0.11828600615262985,
                    -0.0396776981651783,
                    0.34164872765541077
                ],
                [
                    0.13408030569553375,
                    -0.027064042165875435,
                    -0.2916053533554077,
                    -0.16429412364959717,
                    0.1713334023952484,
                    0.11996299028396606,
                    0.2118527591228485,
                    0.10709168761968613,
                    -0.08047531545162201,
                    0.3523457646369934,
                    0.013205298222601414,
                    -0.19191469252109528,
                    -0.19029460847377777,
                    -0.14586536586284637,
                    -0.08759479969739914,
                    0.1464102566242218,
                    0.16727451980113983,
                    -0.07829340547323227,
                    -0.1491435319185257,
                    -0.3015713691711426,
                    0.24862942099571228,
                    0.07810837775468826,
                    0.1383710354566574,
                    -0.3093208968639374,
                    0.027996785938739777,
                    0.17206041514873505,
                    0.2372717410326004,
                    -0.039942417293787,
                    -0.1082863062620163,
                    0.07411283999681473,
                    -0.09269871562719345,
                    0.3539271652698517,
                    0.28173771500587463,
                    -0.2521238625049591,
                    0.10170799493789673,
                    0.06466852128505707,
                    0.08727420121431351,
                    -0.12535518407821655,
                    -0.10278625041246414,
                    0.08689478784799576
                ],
                [
                    0.19683851301670074,
                    0.285663902759552,
                    0.14459174871444702,
                    -0.019687827676534653,
                    0.2795371413230896,
                    0.187009796500206,
                    -0.17529389262199402,
                    0.24619655311107635,
                    -0.053733278065919876,
                    -0.04787697270512581,
                    -0.23939716815948486,
                    -0.06892933696508408,
                    -0.06242891028523445,
                    0.09628219157457352,
                    -0.3982474207878113,
                    0.019432339817285538,
                    -0.052378688007593155,
                    -0.4475035071372986,
                    -0.07120276242494583,
                    -0.19102589786052704,
                    0.2962018549442291,
                    -0.010302113369107246,
                    -0.19597767293453217,
                    -0.05374297872185707,
                    -0.3866399824619293,
                    0.312294602394104,
                    -0.2268502414226532,
                    -0.008056838065385818,
                    -0.03665701299905777,
                    -0.09798739105463028,
                    0.18556733429431915,
                    0.03167811781167984,
                    -0.1542859524488449,
                    0.2913232445716858,
                    -0.10154130309820175,
                    0.037501659244298935,
                    -0.09757396578788757,
                    -0.20219135284423828,
                    -0.1046997457742691,
                    -0.1574941724538803
                ],
                [
                    0.1691725254058838,
                    -0.005706793628633022,
                    0.1393391340970993,
                    0.3155703544616699,
                    0.07720005512237549,
                    0.2977553904056549,
                    0.008915150538086891,
                    0.22806884348392487,
                    0.1861869841814041,
                    -0.11273209005594254,
                    0.048331670463085175,
                    -0.24455536901950836,
                    0.26100462675094604,
                    0.20604822039604187,
                    -0.3603196442127228,
                    0.02664722502231598,
                    -0.14598891139030457,
                    -0.041179437190294266,
                    -0.016602417454123497,
                    0.19922757148742676,
                    -0.26766252517700195,
                    0.28871476650238037,
                    0.008675026707351208,
                    0.09148489683866501,
                    -0.1375017762184143,
                    0.339257150888443,
                    -0.18600013852119446,
                    0.1282949000597,
                    0.1866174042224884,
                    0.1636887788772583,
                    0.015447077341377735,
                    0.28013673424720764,
                    -0.20365911722183228,
                    0.2804518938064575,
                    -0.26948240399360657,
                    0.2996180057525635,
                    -0.24311892688274384,
                    -0.2454383373260498,
                    -0.25758132338523865,
                    -0.027219461277127266
                ],
                [
                    -0.007047044578939676,
                    0.3375551998615265,
                    -0.3318990468978882,
                    -0.10276279598474503,
                    -0.01359463483095169,
                    0.21802125871181488,
                    0.030795235186815262,
                    -0.18401917815208435,
                    0.09644091129302979,
                    0.17566610872745514,
                    0.2691580355167389,
                    0.0769377276301384,
                    -0.1750892549753189,
                    0.025353720411658287,
                    0.011888009496033192,
                    0.21291019022464752,
                    0.027505652979016304,
                    -0.10959456115961075,
                    0.180711030960083,
                    -0.13637162744998932,
                    -0.3042858839035034,
                    0.40272122621536255,
                    0.16792047023773193,
                    -0.05521877110004425,
                    0.05497925728559494,
                    0.11255896091461182,
                    0.04825294390320778,
                    0.1497276872396469,
                    -0.36892762780189514,
                    0.09409413486719131,
                    0.14411446452140808,
                    0.1734609454870224,
                    -0.2527734041213989,
                    -0.26673492789268494,
                    -0.21846546232700348,
                    0.2720226049423218,
                    -0.28455597162246704,
                    -0.13700586557388306,
                    -0.20804916322231293,
                    -0.06268137693405151
                ],
                [
                    0.18168170750141144,
                    0.3250337243080139,
                    -0.15137092769145966,
                    0.06196696311235428,
                    -0.2726820707321167,
                    0.04062066227197647,
                    0.08468933403491974,
                    -0.1514504998922348,
                    -0.044820185750722885,
                    0.06013670563697815,
                    0.27850985527038574,
                    -0.28591257333755493,
                    -0.05662353336811066,
                    -0.30444350838661194,
                    -0.11650529503822327,
                    -0.2469039261341095,
                    0.2252504527568817,
                    0.2878544330596924,
                    0.19515040516853333,
                    0.41677042841911316,
                    0.1018252894282341,
                    0.23972702026367188,
                    -0.060077764093875885,
                    0.11245735734701157,
                    -0.15803325176239014,
                    0.19922232627868652,
                    0.25412628054618835,
                    -0.27329209446907043,
                    -0.10066228359937668,
                    -0.01802138425409794,
                    -0.16021262109279633,
                    0.24878734350204468,
                    0.07515248656272888,
                    -0.31214743852615356,
                    0.13044670224189758,
                    0.16422702372074127,
                    0.19558778405189514,
                    -0.1945643424987793,
                    -0.13833174109458923,
                    -0.1325739324092865
                ],
                [
                    0.20296499133110046,
                    -0.18382173776626587,
                    -0.39227214455604553,
                    0.11304913461208344,
                    0.08082832396030426,
                    0.1307535320520401,
                    -0.18743808567523956,
                    -0.17825916409492493,
                    -0.29658859968185425,
                    0.19587954878807068,
                    -0.08298666775226593,
                    0.08257222175598145,
                    0.22845549881458282,
                    0.030898967757821083,
                    -0.1685190200805664,
                    0.08605045080184937,
                    0.007655794732272625,
                    -8.013461774680763e-05,
                    0.08743693679571152,
                    -0.22536247968673706,
                    -0.07106871157884598,
                    0.4522208571434021,
                    0.3963008522987366,
                    0.09412192553281784,
                    -0.054850198328495026,
                    -0.10088034719228745,
                    -0.2046433389186859,
                    0.12054268270730972,
                    0.1040823832154274,
                    -0.2504023611545563,
                    -0.030062338337302208,
                    0.2500566244125366,
                    0.05928965285420418,
                    -0.00136625487357378,
                    0.21650196611881256,
                    -0.23478585481643677,
                    -0.27122101187705994,
                    -0.12090668082237244,
                    0.16283971071243286,
                    0.36077362298965454
                ],
                [
                    0.34352338314056396,
                    0.1194886863231659,
                    -0.2900768220424652,
                    -0.004644277039915323,
                    0.2993297874927521,
                    -0.3512580692768097,
                    0.08536504209041595,
                    0.28340575098991394,
                    0.14779917895793915,
                    0.35015326738357544,
                    -0.22613361477851868,
                    0.27110743522644043,
                    -0.05819603428244591,
                    0.21140334010124207,
                    -0.39780107140541077,
                    0.18590694665908813,
                    0.012313427403569221,
                    0.16048862040042877,
                    -0.13957864046096802,
                    0.2598000168800354,
                    -0.20595742762088776,
                    -0.10339943319559097,
                    0.1899918168783188,
                    -0.27038174867630005,
                    -0.048890043050050735,
                    0.1955147683620453,
                    -0.07411916553974152,
                    -0.03650164231657982,
                    -0.23763197660446167,
                    -0.09183034300804138,
                    0.1852145940065384,
                    0.22869747877120972,
                    -0.3424496352672577,
                    0.09632041305303574,
                    -0.0031949831172823906,
                    0.07569674402475357,
                    0.11577868461608887,
                    0.018582111224532127,
                    -0.1867104023694992,
                    0.3183431923389435
                ],
                [
                    0.35988175868988037,
                    0.3805932402610779,
                    0.1386738419532776,
                    -0.2236284762620926,
                    0.2973112165927887,
                    0.03981434553861618,
                    0.0254062470048666,
                    -0.24207663536071777,
                    -0.037436552345752716,
                    -0.1479494571685791,
                    0.23904858529567719,
                    0.19317923486232758,
                    -0.10735905170440674,
                    -0.02404364012181759,
                    0.17843204736709595,
                    0.23643164336681366,
                    -0.1515924334526062,
                    0.21064627170562744,
                    -0.3040675222873688,
                    0.3810587227344513,
                    0.3200576603412628,
                    -0.034030843526124954,
                    -0.09567113220691681,
                    -0.10116817057132721,
                    -0.10825949907302856,
                    -0.054444074630737305,
                    -0.1599844992160797,
                    -0.31964951753616333,
                    0.009504268877208233,
                    -0.0705099105834961,
                    0.2033362090587616,
                    0.02673216350376606,
                    -0.204557403922081,
                    -0.01702783815562725,
                    -0.03174916282296181,
                    -0.03999648243188858,
                    -0.22598953545093536,
                    -0.11766701191663742,
                    -0.14024598896503448,
                    0.026808755472302437
                ],
                [
                    0.2607530653476715,
                    -0.0688604861497879,
                    -0.38294127583503723,
                    -0.1552421599626541,
                    -0.010221830569207668,
                    -0.12155497074127197,
                    0.07697997242212296,
                    0.12948603928089142,
                    -0.06478454917669296,
                    0.1410725861787796,
                    0.41433918476104736,
                    0.03913388028740883,
                    0.23344677686691284,
                    -0.2110404670238495,
                    0.017895152792334557,
                    -0.1700858622789383,
                    -0.17502543330192566,
                    0.3736231327056885,
                    -0.16088691353797913,
                    -0.19884583353996277,
                    -0.14322885870933533,
                    0.36311498284339905,
                    -0.08454243838787079,
                    0.09969831258058548,
                    0.41744574904441833,
                    -0.1704585999250412,
                    -0.2755008935928345,
                    0.058248743414878845,
                    0.1085335984826088,
                    -0.2558511197566986,
                    -0.2447119951248169,
                    -0.23113371431827545,
                    0.13576319813728333,
                    0.055040907114744186,
                    0.34193864464759827,
                    -0.23305031657218933,
                    -0.04368378594517708,
                    -0.36240991950035095,
                    -0.024411361664533615,
                    0.2706637382507324
                ],
                [
                    0.07084403932094574,
                    -0.016833601519465446,
                    -0.04189131781458855,
                    0.15097199380397797,
                    -0.26259276270866394,
                    -0.40016409754753113,
                    -0.1845122128725052,
                    0.23276391625404358,
                    -0.3365294933319092,
                    -0.2576207220554352,
                    0.2058236300945282,
                    0.20675548911094666,
                    0.0480363555252552,
                    0.13118739426136017,
                    -0.0895184800028801,
                    -0.326850950717926,
                    0.10377182066440582,
                    0.32431700825691223,
                    -0.2515852153301239,
                    0.22610293328762054,
                    0.2663281559944153,
                    -0.08775899559259415,
                    -0.26601481437683105,
                    0.04167328029870987,
                    -0.08102061599493027,
                    0.10760468989610672,
                    -0.35660794377326965,
                    0.20532678067684174,
                    -0.1968986690044403,
                    0.3168972432613373,
                    -0.005300814751535654,
                    0.17347405850887299,
                    -0.05661406368017197,
                    -0.20804858207702637,
                    -0.2402363270521164,
                    0.35450729727745056,
                    0.29447928071022034,
                    -0.16811025142669678,
                    -0.0885780081152916,
                    0.4603818953037262
                ],
                [
                    0.11508269608020782,
                    0.04874785616993904,
                    -0.2026718258857727,
                    -0.17319068312644958,
                    0.2835342586040497,
                    -0.3578127920627594,
                    -0.37996906042099,
                    0.33022406697273254,
                    -0.20065739750862122,
                    -0.06842172145843506,
                    0.006393481511622667,
                    0.14444510638713837,
                    -0.05997617542743683,
                    0.0962659940123558,
                    0.1587194800376892,
                    -0.274990051984787,
                    0.13601864874362946,
                    -0.10767167061567307,
                    0.28085678815841675,
                    -0.07839687913656235,
                    -0.06431642919778824,
                    -0.01676039956510067,
                    -0.13381998240947723,
                    -0.3380451202392578,
                    -0.31166473031044006,
                    0.20230822265148163,
                    0.22950401902198792,
                    -0.3590150475502014,
                    -0.36718475818634033,
                    0.129483163356781,
                    0.257358193397522,
                    0.35053274035453796,
                    0.23629342019557953,
                    -0.17602764070034027,
                    -0.08516909927129745,
                    -0.21036922931671143,
                    0.14470241963863373,
                    -0.10503870993852615,
                    -0.1765209138393402,
                    0.03242950513958931
                ],
                [
                    0.15750594437122345,
                    0.3831297755241394,
                    -0.1975628286600113,
                    -0.06077788770198822,
                    0.06192247197031975,
                    -0.09640456736087799,
                    -0.055996980518102646,
                    -0.07138604670763016,
                    9.39456804189831e-05,
                    0.29476797580718994,
                    0.00045230425894260406,
                    0.2702287435531616,
                    0.12378548085689545,
                    -0.298946350812912,
                    0.042256053537130356,
                    0.052497923374176025,
                    -0.04979979246854782,
                    -0.3000245690345764,
                    -0.289101243019104,
                    -0.06122064217925072,
                    0.2951525151729584,
                    -0.11006797850131989,
                    0.25922226905822754,
                    0.2532425820827484,
                    -0.0008657031576149166,
                    0.3948066532611847,
                    0.09494317322969437,
                    -0.08859235048294067,
                    0.1925882250070572,
                    0.14715218544006348,
                    0.1281404197216034,
                    0.02763918973505497,
                    0.05707554891705513,
                    0.2125469297170639,
                    0.15018458664417267,
                    0.054018184542655945,
                    -0.04429658129811287,
                    0.10163843631744385,
                    -0.22937703132629395,
                    0.08934425562620163
                ],
                [
                    0.3453793525695801,
                    0.2984175682067871,
                    -0.31550243496894836,
                    0.26004692912101746,
                    0.027290236204862595,
                    -0.26033318042755127,
                    0.25196465849876404,
                    -0.08555027842521667,
                    0.015970397740602493,
                    0.08421861380338669,
                    0.20038194954395294,
                    0.2577173113822937,
                    0.26669466495513916,
                    -0.11158288270235062,
                    -0.22311866283416748,
                    0.14236773550510406,
                    -0.24509455263614655,
                    0.038996580988168716,
                    0.025134218856692314,
                    -0.1325315684080124,
                    0.001954268431290984,
                    -0.05897821858525276,
                    0.08345425128936768,
                    -0.2064548134803772,
                    0.23075543344020844,
                    -0.14912815392017365,
                    0.254821240901947,
                    -0.14516505599021912,
                    -0.2619549334049225,
                    0.00955108180642128,
                    -0.19480977952480316,
                    0.34520116448402405,
                    0.31664717197418213,
                    0.037390902638435364,
                    0.009125125594437122,
                    0.25735870003700256,
                    0.2052130252122879,
                    -0.005817184690386057,
                    -0.19814755022525787,
                    0.13837799429893494
                ],
                [
                    -0.05839499086141586,
                    -0.18300901353359222,
                    -0.08392076194286346,
                    -0.08686933666467667,
                    0.1809760481119156,
                    -0.35106632113456726,
                    -0.34900906682014465,
                    0.2982802987098694,
                    0.10790594667196274,
                    -0.08764636516571045,
                    0.02375066466629505,
                    -0.03985678032040596,
                    -0.13979493081569672,
                    0.21845205128192902,
                    0.04256029427051544,
                    -0.12855544686317444,
                    0.19321632385253906,
                    -0.18219828605651855,
                    0.08996648341417313,
                    -0.0991799384355545,
                    0.1769726723432541,
                    0.45303064584732056,
                    -0.20921513438224792,
                    -0.221908301115036,
                    0.45221424102783203,
                    0.1953238546848297,
                    -0.3033604919910431,
                    0.2148856520652771,
                    -0.30648982524871826,
                    -0.149885356426239,
                    0.26477450132369995,
                    0.20516037940979004,
                    -0.0573955662548542,
                    -0.4126705527305603,
                    0.20509974658489227,
                    0.2670840620994568,
                    0.06001368537545204,
                    0.11815137416124344,
                    0.10050860792398453,
                    0.2702261805534363
                ],
                [
                    0.41939008235931396,
                    0.27047640085220337,
                    -0.29224520921707153,
                    0.08843448758125305,
                    -0.2084646373987198,
                    -0.047566838562488556,
                    0.07180280983448029,
                    0.09691644459962845,
                    -0.24017152190208435,
                    -0.10302543640136719,
                    -0.28215593099594116,
                    0.02685580402612686,
                    -0.22167420387268066,
                    0.1826256364583969,
                    -0.19488950073719025,
                    0.1247292160987854,
                    0.05880259722471237,
                    0.15121744573116302,
                    -0.25316232442855835,
                    0.26158225536346436,
                    0.24975942075252533,
                    -0.14345239102840424,
                    0.297050416469574,
                    -0.2319321483373642,
                    0.15224112570285797,
                    -0.14275144040584564,
                    0.0668906569480896,
                    -0.18842415511608124,
                    -0.3941197395324707,
                    -0.30564144253730774,
                    0.05431642010807991,
                    -0.15186819434165955,
                    -0.30035537481307983,
                    -0.08895337581634521,
                    -0.24980120360851288,
                    0.37762123346328735,
                    0.16496364772319794,
                    0.07509645819664001,
                    -0.11262193322181702,
                    -0.03448036313056946
                ],
                [
                    -0.08646903932094574,
                    0.2721403241157532,
                    -0.261199027299881,
                    0.2746731638908386,
                    0.16163617372512817,
                    0.10983771830797195,
                    -0.15486185252666473,
                    -0.27358946204185486,
                    0.22065412998199463,
                    0.17418085038661957,
                    0.12299392372369766,
                    0.040963299572467804,
                    0.14284883439540863,
                    -0.2774733901023865,
                    -0.027244415134191513,
                    -0.04822013899683952,
                    -0.15356917679309845,
                    -0.0799575001001358,
                    -0.02095591463148594,
                    0.24742917716503143,
                    -0.09343595802783966,
                    0.027433989569544792,
                    0.03819076344370842,
                    0.18031232059001923,
                    0.1114039272069931,
                    0.26491209864616394,
                    -0.2494002878665924,
                    -0.06778062880039215,
                    0.0857045128941536,
                    0.049218952655792236,
                    0.2552015781402588,
                    0.31049349904060364,
                    0.1257326900959015,
                    -0.28861334919929504,
                    -0.21110528707504272,
                    0.1229701116681099,
                    0.19281533360481262,
                    -0.15399260818958282,
                    -0.11417470127344131,
                    0.24087077379226685
                ],
                [
                    0.07230005413293839,
                    0.34161993861198425,
                    -0.44759035110473633,
                    -0.03894614800810814,
                    -0.06579418480396271,
                    -0.16817113757133484,
                    -0.3073466420173645,
                    0.15748551487922668,
                    -0.2711433470249176,
                    -0.15499983727931976,
                    -0.04882976412773132,
                    0.18569113314151764,
                    0.2593250274658203,
                    0.1259983330965042,
                    -0.3810442090034485,
                    0.23064155876636505,
                    0.23047266900539398,
                    0.28126001358032227,
                    -0.30884814262390137,
                    -0.23413778841495514,
                    0.12214747816324234,
                    -0.19624735414981842,
                    -0.1658809334039688,
                    0.2738666832447052,
                    -0.08354821801185608,
                    -0.12315534055233002,
                    -0.20174898207187653,
                    -0.05945224687457085,
                    0.009641248732805252,
                    -0.049975451081991196,
